<?xml version="1.0"?>
<MethodSetup Method="MLP::MLPBNN">
  <GeneralInfo>
    <Info name="TMVA Release" value="4.2.1 [262657]"/>
    <Info name="ROOT Release" value="6.06/00 [394752]"/>
    <Info name="Creator" value="jesperhallberg"/>
    <Info name="Date" value="Mon Feb 29 12:50:40 2016"/>
    <Info name="Host" value="Darwin tennine-slave.macports.org 13.4.0 Darwin Kernel Version 13.4.0: Wed Mar 18 16:20:14 PDT 2015; root:xnu-2422.115.14~1/RELEASE_X86_64 x86_64"/>
    <Info name="Dir" value="/opt/local/libexec/root6/share/doc/root/tutorials/tmva"/>
    <Info name="Training events" value="2000"/>
    <Info name="TrainingTime" value="2.28766570e+01"/>
    <Info name="AnalysisType" value="Classification"/>
  </GeneralInfo>
  <Options>
    <Option name="NCycles" modified="Yes">600</Option>
    <Option name="HiddenLayers" modified="Yes">N+5</Option>
    <Option name="NeuronType" modified="Yes">tanh</Option>
    <Option name="RandomSeed" modified="No">1</Option>
    <Option name="EstimatorType" modified="No">CE</Option>
    <Option name="NeuronInputType" modified="No">sum</Option>
    <Option name="V" modified="Yes">False</Option>
    <Option name="VerbosityLevel" modified="No">Default</Option>
    <Option name="VarTransform" modified="Yes">N</Option>
    <Option name="H" modified="Yes">True</Option>
    <Option name="CreateMVAPdfs" modified="No">False</Option>
    <Option name="IgnoreNegWeightsInTraining" modified="No">False</Option>
    <Option name="TrainingMethod" modified="Yes">BFGS</Option>
    <Option name="LearningRate" modified="No">2.000000e-02</Option>
    <Option name="DecayRate" modified="No">1.000000e-02</Option>
    <Option name="TestRate" modified="Yes">5</Option>
    <Option name="EpochMonitoring" modified="No">False</Option>
    <Option name="Sampling" modified="No">1.000000e+00</Option>
    <Option name="SamplingEpoch" modified="No">1.000000e+00</Option>
    <Option name="SamplingImportance" modified="No">1.000000e+00</Option>
    <Option name="SamplingTraining" modified="No">True</Option>
    <Option name="SamplingTesting" modified="No">False</Option>
    <Option name="ResetStep" modified="No">50</Option>
    <Option name="Tau" modified="No">3.000000e+00</Option>
    <Option name="BPMode" modified="No">sequential</Option>
    <Option name="BatchSize" modified="No">-1</Option>
    <Option name="ConvergenceImprove" modified="No">1.000000e-30</Option>
    <Option name="ConvergenceTests" modified="No">-1</Option>
    <Option name="UseRegulator" modified="Yes">True</Option>
    <Option name="UpdateLimit" modified="No">10000</Option>
    <Option name="CalculateErrors" modified="No">False</Option>
    <Option name="WeightRange" modified="No">1.000000e+00</Option>
  </Options>
  <Variables NVar="4">
    <Variable VarIndex="0" Expression="var1+var2" Label="myvar1" Title="myvar1" Unit="" Internal="myvar1" Type="F" Min="-8.53927994e+00" Max="7.90235996e+00"/>
    <Variable VarIndex="1" Expression="var1-var2" Label="myvar2" Title="Expression 2" Unit="" Internal="myvar2" Type="F" Min="-3.78471279e+00" Max="3.88831329e+00"/>
    <Variable VarIndex="2" Expression="var3" Label="var3" Title="Variable 3" Unit="units" Internal="var3" Type="F" Min="-5.35628748e+00" Max="4.64219379e+00"/>
    <Variable VarIndex="3" Expression="var4" Label="var4" Title="Variable 4" Unit="units" Internal="var4" Type="F" Min="-5.99433327e+00" Max="4.92254400e+00"/>
  </Variables>
  <Spectators NSpec="2">
    <Spectator SpecIndex="0" Expression="var1*2" Label="spec1" Title="Spectator 1" Unit="units" Internal="spec1" Type="F" Min="-9.63254642e+00" Max="9.15156078e+00"/>
    <Spectator SpecIndex="1" Expression="var1*3" Label="spec2" Title="Spectator 2" Unit="units" Internal="spec2" Type="F" Min="-1.44488201e+01" Max="1.37273407e+01"/>
  </Spectators>
  <Classes NClass="2">
    <Class Name="Signal" Index="0"/>
    <Class Name="Background" Index="1"/>
  </Classes>
  <Transformations NTransformations="1">
    <Transform Name="Normalize">
      <Selection>
        <Input NInputs="4">
          <Input Type="Variable" Label="myvar1" Expression="var1+var2"/>
          <Input Type="Variable" Label="myvar2" Expression="var1-var2"/>
          <Input Type="Variable" Label="var3" Expression="var3"/>
          <Input Type="Variable" Label="var4" Expression="var4"/>
        </Input>
        <Output NOutputs="4">
          <Output Type="Variable" Label="myvar1" Expression="var1+var2"/>
          <Output Type="Variable" Label="myvar2" Expression="var1-var2"/>
          <Output Type="Variable" Label="var3" Expression="var3"/>
          <Output Type="Variable" Label="var4" Expression="var4"/>
        </Output>
      </Selection>
      <Class ClassIndex="0">
        <Ranges>
          <Range Index="0" Min="-5.0562591552734375e+00" Max="5.5480084419250488e+00"/>
          <Range Index="1" Min="-3.7847127914428711e+00" Max="2.8768658638000488e+00"/>
          <Range Index="2" Min="-2.7058262825012207e+00" Max="4.6421937942504883e+00"/>
          <Range Index="3" Min="-2.5568437576293945e+00" Max="4.0139613151550293e+00"/>
        </Ranges>
      </Class>
      <Class ClassIndex="1">
        <Ranges>
          <Range Index="0" Min="-8.5392799377441406e+00" Max="7.9023599624633789e+00"/>
          <Range Index="1" Min="-3.4552407264709473e+00" Max="3.8883132934570312e+00"/>
          <Range Index="2" Min="-5.3562874794006348e+00" Max="4.1773462295532227e+00"/>
          <Range Index="3" Min="-5.9943332672119141e+00" Max="4.9225440025329590e+00"/>
        </Ranges>
      </Class>
      <Class ClassIndex="2">
        <Ranges>
          <Range Index="0" Min="-8.5392799377441406e+00" Max="7.9023599624633789e+00"/>
          <Range Index="1" Min="-3.7847127914428711e+00" Max="3.8883132934570312e+00"/>
          <Range Index="2" Min="-5.3562874794006348e+00" Max="4.6421937942504883e+00"/>
          <Range Index="3" Min="-5.9943332672119141e+00" Max="4.9225440025329590e+00"/>
        </Ranges>
      </Class>
    </Transform>
  </Transformations>
  <MVAPdfs/>
  <Weights>
    <Layout NLayers="3">
      <Layer Index="0" NNeurons="5">
        <Neuron NSynapses="9">
          -4.4242653775560564e-01 2.1190468765301881e-01 -2.5769878437615701e-01 2.5114472181393110e+00 4.6015073068861295e-01 -1.9469105875002586e+00 -9.4669208856441101e-01 2.7639023857649101e+00 -2.1398549790566155e+00 
        </Neuron>
        <Neuron NSynapses="9">
          3.0463080531861947e-01 -2.2397779702266815e-01 2.4995362039054647e-01 -2.2153467026817319e-01 4.2398801240077777e-02 -4.0047295941939703e-01 -3.5621067756797542e-01 -7.0155948878379615e-01 9.9195998961679843e-01 
        </Neuron>
        <Neuron NSynapses="9">
          8.0659115222652455e-01 -3.0642840420991990e-01 3.9382542765180306e-01 -5.4522619067596267e-01 7.3113454170409498e-01 -6.1398603982619016e-01 1.4559015477936610e+00 1.0032549549556549e+00 8.8593744747583289e-02 
        </Neuron>
        <Neuron NSynapses="9">
          -6.5126829363193006e-01 3.2382717793573829e-01 -3.5526136854056317e-01 1.4556780440100969e+00 1.8923214263323078e+00 2.2763194193694982e+00 -2.1652302671163293e+00 1.6792341252144318e+00 1.9214738550741319e+00 
        </Neuron>
        <Neuron NSynapses="9">
          8.2674174166019104e-02 -1.7551501681465948e-03 1.7072790104428561e-03 3.8430574788795063e-01 -6.8323907668094722e-02 1.1477219915602745e-01 -3.1997237174447613e-01 1.9595432378204042e-01 2.4611566511430406e-02 
        </Neuron>
      </Layer>
      <Layer Index="1" NNeurons="10">
        <Neuron NSynapses="1">
          -8.4869543144085284e+00 
        </Neuron>
        <Neuron NSynapses="1">
          2.6804760624809632e+00 
        </Neuron>
        <Neuron NSynapses="1">
          -3.6876314923142433e+00 
        </Neuron>
        <Neuron NSynapses="1">
          8.7491720984353751e+00 
        </Neuron>
        <Neuron NSynapses="1">
          5.3209872992911222e+00 
        </Neuron>
        <Neuron NSynapses="1">
          9.5535426976309914e+00 
        </Neuron>
        <Neuron NSynapses="1">
          8.4487100096857759e+00 
        </Neuron>
        <Neuron NSynapses="1">
          -6.1929159712592954e+00 
        </Neuron>
        <Neuron NSynapses="1">
          6.1471699867533580e+00 
        </Neuron>
        <Neuron NSynapses="1">
          -2.5104911196676745e+00 
        </Neuron>
      </Layer>
      <Layer Index="2" NNeurons="1">
        <Neuron NSynapses="0"/>
      </Layer>
    </Layout>
    <InverseHessian NElements="3025" NRows="55" NCols="55">
      <Row Index="0">
        6.6849477719304468e+02 -7.7481004649654078e+03 -7.2266392346574021e+03 2.4175834610759162e+00 -3.1821208718852025e+00 7.7769064956413985e+01 -3.3896761477536225e-01 2.3069633638821716e+00 -3.9071178555264979e+01 -4.0655726804005738e+01 -8.6149677744991754e+02 -6.0653503583750512e+02 -4.4854499692507749e-01 -1.4407923385502746e+00 -6.3232179456601649e+00 -1.9346183589824320e+00 9.8881600756681964e-01 2.9441540231754293e+00 -1.9970512090644505e+02 3.3493547032620049e+03 2.2492067605779553e+03 4.4805992274957269e+00 2.7883508999827749e+00 -2.5058797379525434e+01 1.2758317132213776e+01 -4.3556876938140761e+00 -2.1943372170727223e+01 -3.5150570694871607e+02 1.6135103339699817e+03 2.6587903827946993e+03 -2.0142156932140916e+00 -3.2278729668104020e+00 -2.6000842101889560e+01 -1.8652960009607554e+01 -3.4467737896863411e+00 5.4569622648142158e+01 7.5405583227247774e+01 -5.8418259560623346e+02 -6.7887012294001772e+02 -1.3099942687801076e+00 -6.1852713996203079e-01 -1.3384174664328970e+01 3.9001845947296943e-02 2.0080342721121980e-01 -4.6295506616582838e+00 -5.0585573047344160e+03 -3.6491197445306761e+03 3.7196668027445107e+03 2.8451824624197172e+01 -2.7823256654006769e+00 8.0782268667977337e+02 -1.3332182550835660e+02 -3.0995384061440433e+01 -1.6347401971676450e+02 1.3680789098159642e+02 
      </Row>
      <Row Index="1">
        -7.7481004231690758e+03 1.7952253571504977e+05 1.5012981102983665e+05 1.6348252922020286e+01 -2.2733255015775197e+02 1.1978794715394974e+02 9.8625251792249401e+01 3.2269924279540803e+01 5.4812643030230367e+02 3.6883141179898814e+02 1.2679683869611652e+04 6.5923166411935890e+03 -2.7124909630991237e+01 5.2491326790026989e+01 3.4799201373780852e+02 1.4836937286686627e+01 -2.5339330382968086e+01 -2.0405616501490066e+01 1.5230692630225376e+03 -3.7796445992599198e+04 -3.5396881484503610e+04 -1.1988915990117992e+01 8.7527054166712333e+00 7.1039249803007885e+02 -5.7763634524347438e+01 1.3002005985754735e+01 3.8913230144492452e+01 5.1485581097940267e+03 -1.0370956739587391e+05 -8.3355270666868819e+04 4.3140457180934050e+01 2.3502440553146749e+02 -9.8878885471620924e+02 9.2310953767662852e+01 6.8676778915568832e+01 -4.8872032463778959e+02 -1.3477831500367110e+03 8.5510135396101214e+03 8.0838946025172072e+03 -2.4410381815099536e+00 -1.2289960640420716e+01 1.2508824832024240e+02 1.5915161513352530e+01 5.5915534607139250e+00 6.2291313674829745e+01 -2.5061157643121955e+04 6.2247886712477120e+03 1.5175108192985390e+03 -4.1003079364720907e+02 -5.9376594298813234e+02 3.6824349822520462e+03 1.1241296924320677e+03 3.7371823136169007e+02 9.9175428652509572e+02 -4.0235464979678259e+03 
      </Row>
      <Row Index="2">
        -7.2266391962255702e+03 1.5012981103989098e+05 1.3148384018846831e+05 -5.9446578039883420e+00 -1.1847562886060204e+02 -4.1757829489836689e+02 9.1528634468504606e+01 -9.4488029793713260e+00 4.0121993676722889e+02 5.4844768838990308e+02 7.7481604757915775e+03 2.0312514216898780e+03 -2.1502795461880307e+01 2.9413709414031441e+01 2.1309940613067786e+02 2.3125396361945942e+01 -1.7887022345934117e+01 -9.1135560160489781e+00 1.0046682375022433e+03 -4.1295150652196426e+04 -3.9358384741419031e+04 -3.7818629703054668e+01 -1.5555008364744936e+00 4.8592597139103731e+02 -6.3861946014284669e+01 2.0003419232283992e+01 3.5263380322087933e+01 5.0996674198541177e+03 -7.3810350248298142e+04 -6.1674113684059783e+04 4.9613192427190270e+01 1.5272205800608032e+02 -3.0384460990180787e+02 8.7841734304001932e+01 6.5321898035093810e+01 -3.2370781320651264e+02 -1.2447806648748192e+03 5.5862588820707024e+03 4.8839371043545498e+03 1.6464341199716663e+00 -5.5434894525064493e-01 1.3380402176374901e+02 1.3191712249117245e+01 1.6439145534110366e-01 5.0883979245832350e+01 -4.3824690107515373e+04 -6.9488906761518701e+03 2.6128499802172882e+01 -3.9706578039966007e+02 -2.4771911369502598e+02 -3.1088880752836612e+03 1.2368796029649129e+03 2.8792909539526300e+02 4.6734479764359514e+02 -4.7367906439876861e+03 
      </Row>
      <Row Index="3">
        2.4175834413675674e+00 1.6348252858860103e+01 -5.9446578112699200e+00 1.4212528131127987e+01 5.0388917430802795e+00 -2.0773833113527544e+00 3.0908435289905674e+00 4.9736856993936813e+00 1.3511818536699316e+00 -6.3190770905780154e+00 -3.9337801343766216e+01 3.8539919719493989e+00 -3.4705721235980453e+00 -2.7023976816063533e-01 -5.7456567366498457e-01 -2.1595302492169521e+00 7.9738400108742713e-01 -2.9506295926440151e-01 -1.3909707497483856e+00 4.7874737513565705e+01 7.7785207921034569e+01 5.9720864110190499e+00 -2.8370744261170304e+00 6.1212272740042484e-01 1.5121694848787128e+00 -1.9685562318440601e+00 -1.6798534419764581e+00 4.0783344699288708e+00 -9.8877715370068017e+01 -1.2263036363133705e+02 -6.7817109114624818e+00 -3.4585188716613149e+00 1.1796572768821503e+00 2.1805686191512130e-01 -5.1931812415072791e+00 5.2554955636525058e-01 -9.2127898787295784e-02 -2.0729828036553471e+01 1.1983057446430461e+00 9.6398255944498046e-01 1.3034165559176452e+00 1.5712287910564643e-01 4.4697457364102938e-02 1.0805590283609632e+00 -2.9633353338580151e-02 1.1075851518790419e+02 -6.4063958629544942e+01 6.0519450001841307e+01 -5.1584360874420732e+01 2.4635676456245378e+01 -2.5221183659051732e+01 -5.4122487556825824e+01 -2.7784952456010622e+01 2.7177748500302092e+00 5.2233860900257831e+01 
      </Row>
      <Row Index="4">
        -3.1821209190673105e+00 -2.2733254934961985e+02 -1.1847562807803166e+02 5.0388917420185289e+00 1.3339790756339482e+01 -6.9603837346067152e+00 -1.1226428386303482e+00 -2.6719744829116050e+00 -3.0590834430014435e-01 2.6475103150230246e+00 4.3534456842483067e+00 -1.2279808300407787e+01 -6.2359565839335296e-01 -1.7795652698879065e+00 -1.3507555364490689e+00 -3.4603690164160462e-02 1.5928437178577304e+00 -3.3737784210259053e-02 2.3580635790848650e+00 -1.1929014361215334e+02 -1.0658064548134799e+02 -1.8105672923740130e+00 -2.9474082468499527e+00 -1.3818005018838182e+00 -1.1369568567639168e+00 6.1298251998164688e-01 3.1684199696894666e-01 7.4861960192658517e-01 2.7545026629011051e+02 1.8945580954488787e+02 -1.3632951202423909e+00 -7.7464847973669189e+00 6.8375446953991981e+00 2.3356339806022786e+00 -2.5124791634894201e+00 2.5646783984379928e-01 9.6634879237972338e-01 -4.4028219602096016e+01 -3.8473486532551810e+01 1.1106658951224306e+00 2.2944034281873456e+00 1.7662956954187181e-01 -2.5220846733108071e-01 -1.1929247859432834e-01 -9.7282724670246290e-02 -4.2980830381234682e+01 7.8127522141742034e+01 -8.1312120481810737e+01 -3.2456732289986135e+01 5.3076994677827294e+01 -7.7647969394771067e+01 2.7515715869743165e+00 -1.8947533562371202e+01 -1.0271048111205472e+00 -3.2319141047727755e+00 
      </Row>
      <Row Index="5">
        7.7769065041395820e+01 1.1978793944869912e+02 -4.1757830174975680e+02 -2.0773833074514241e+00 -6.9603837235831634e+00 8.1224503964262155e+01 -5.0811045430725841e+00 2.0502716065220299e+00 -8.6137164477453476e-01 -2.1880083681293300e+01 4.8243210719213818e+02 3.9417761967284230e+02 2.1300379250868704e+00 8.1217073390584427e-01 1.3328339516860098e+01 1.9154613702944087e-01 -7.1443346274624642e-01 1.3750630312437291e+00 -1.3923062135695471e+01 8.0062526118527205e+02 5.9482972892984185e+02 -2.1605102751444178e+00 7.5503294189562575e-01 1.9649353795556973e+01 -1.5035096853198671e+00 1.6274089361647364e+00 2.9838552708954182e+00 -3.4194992451875784e+01 -1.2291496649444375e+03 -5.5833143410591151e+02 -4.2723677012363050e-02 5.6521943851619012e+00 -8.7892760344825618e+01 3.2172290198139004e+00 6.8153434103317911e-01 -5.4310328226075617e+00 5.9660500795572258e+00 9.6965334620354255e+01 8.3668257526286538e+01 -4.0866746693658244e-02 -9.5758556488022117e-01 -1.2760584694841473e+00 -4.4783690109335073e-01 -7.2921823472815284e-02 -1.1813049576252214e-01 4.0649604721810192e+01 -3.6422842797005842e+02 3.6928689597403559e+02 1.6126318188604873e+01 -2.0807052285062618e+01 8.9472512613517392e+02 1.0860804539870202e+01 2.2688485026636421e+01 6.3470925267353397e+00 4.9963941858980299e+00 
      </Row>
      <Row Index="6">
        -3.3896763256198437e-01 9.8625253090610684e+01 9.1528635585330022e+01 3.0908435287274432e+00 -1.1226428406444455e+00 -5.0811045395261276e+00 7.9989866968016745e+00 -6.4973962851269107e-02 1.1400431011598762e+00 6.2722848605708059e-01 -7.2739767240607819e+01 -5.2770686726290208e+01 -3.3067071044823702e+00 1.7312070509651692e-01 -1.1707416368536030e+00 -1.1374334799199803e+00 7.1140019939274479e-01 -9.7479903360246978e-01 8.1359840706231346e+00 -1.1972646883531810e+02 -1.0707673345845161e+02 6.8057480402878525e+00 -9.4496576938790666e-01 -2.5147698867782098e+00 1.7389487445495597e+00 -4.4605043156962214e+00 -2.4177557791451463e+00 -7.4796255395132825e+00 4.2698622853675616e+01 3.6202693208554805e+01 7.1427922738892213e-01 8.5215826603984257e-01 7.1401967802136639e+00 -5.7274073083813635e+00 -1.8383854143865314e-01 2.1989247419697819e+00 -2.6140737410784007e+00 -3.6113748053501737e+00 9.0614238344707125e+00 -4.9116102289591396e-01 -9.6055957540697873e-02 -3.8084019298568095e-01 7.6443304364907572e-01 6.7639681553978481e-01 6.2523861903063901e-02 -7.9147193004627070e+00 2.9315209208901720e+00 -4.1899172733006367e+00 -5.1754532594321674e+00 -3.4950726830544010e-01 -5.8404374813742940e+01 -3.7494314414931921e+01 -3.5075671266817913e+01 8.1824419226001588e+00 3.0872850465835413e+01 
      </Row>
      <Row Index="7">
        2.3069633362104436e+00 3.2269924667760712e+01 -9.4488026651269337e+00 4.9736856996469250e+00 -2.6719744832730328e+00 2.0502716072447913e+00 -6.4973962648231520e-02 1.0866647729961059e+01 -1.6406885635441679e+00 -2.5690546110355195e+00 -7.7850587763855629e+01 -3.3574154372434023e+01 -2.4257425175925856e-01 2.2880539356036995e+00 -8.0145423198463919e-03 -9.0036205506975575e-01 -2.0378370782371391e+00 5.4872010902938184e-01 -1.4681885309850903e-01 6.7302641327175337e+01 9.4437752978963005e+01 6.2685091627742651e-01 2.7162851171590019e-01 7.9576092151750077e-01 1.0635093806874680e+00 3.0849417171224469e+00 -9.4071019625758723e-01 -1.7046496966013263e+00 -2.2758765294401641e+01 -5.1071722809827214e+01 -3.6708826889400950e+00 -2.6889686458606943e+00 -2.7095036128862122e+00 9.8202350136261995e-01 -4.5666051111834358e+00 2.5151631686569380e+00 3.5348155540305914e-01 4.9384389668899944e+00 1.1048108984933753e+01 4.3979038144595567e-01 -3.8892288249595047e-01 -2.2988095984750448e-02 -7.0161185328940862e-02 8.9427311943071974e-01 -4.1116782759623216e-02 1.6334209867197080e+02 -6.0286056937744902e+01 5.8543911483069593e+01 -3.0079733193592062e+01 -2.5504147550067081e+01 1.7952970541471153e+01 -1.9168667335704626e+01 3.5851998522882361e+01 -1.2301981115290021e+01 1.6027174343995387e+01 
      </Row>
      <Row Index="8">
        -3.9071178808480575e+01 5.4812643422880672e+02 4.0121994159066173e+02 1.3511818438155390e+00 -3.0590833108544757e-01 -8.6137176142179139e-01 1.1400431106604856e+00 -1.6406885712008261e+00 4.0624886863390962e+01 -2.0776226453367808e+01 4.9070564779245296e+02 4.5482672152534394e+02 -6.3522427664258885e-01 -2.9744168444122265e-01 1.3039141468562681e+00 -1.1115239401902384e+00 1.5119723475603206e+00 -1.0492147491200484e+01 2.5024680365930365e+01 -6.0905822026186252e+02 -4.5584788844390437e+02 6.0132411212587158e+00 -5.1669725007668954e-01 3.7013132733196463e+00 -2.1302548305771398e+00 -2.5998669019111822e+00 7.8254924853359853e+00 1.9382122402036234e+01 2.9694097682478912e+02 1.9570536563034557e+02 -2.1807572209627986e+00 2.7178078935104044e+00 -3.2598308799855022e+00 3.8809083644670945e+00 -6.1529722598083747e-01 -4.8574017711139113e+01 -3.3336316564733082e+01 3.3679270771047220e+02 3.8472371421532654e+02 -2.2025252247212285e-01 -4.8222065063170161e-01 1.0678608922964212e+00 1.7498523724604920e-02 2.8770807356698480e-01 1.7974753445286802e+00 1.4504297912688526e+02 4.0361676392660968e+01 -4.8148921840962558e+01 1.2888853098926786e+01 -4.6857061888555638e+00 3.7494088820684794e+00 1.6394956251599044e+00 -2.8927552827641922e+01 2.3960621230292665e+02 2.0284254331496950e+02 
      </Row>
      <Row Index="9">
        -4.0655727149792128e+01 3.6883144041144158e+02 5.4844771131196740e+02 -6.3190770870962281e+00 2.6475102503436574e+00 -2.1880083490486413e+01 6.2722848274802345e-01 -2.5690546030200494e+00 -2.0776226725376770e+01 1.3351520473721891e+02 -1.2602848173191562e+03 -1.3342231643389514e+03 2.6651992719075679e+00 -1.1796859991817950e-01 -8.0545882267060360e+00 2.7577889070544188e+00 -1.4721844236961812e+00 -3.2222928107611892e-01 1.5212317333532323e+02 -2.0942510894645720e+03 -1.8734922127814657e+03 -1.2614395024540045e+01 3.3291725890808497e+00 -1.8011888412808272e+01 5.6992016323673744e-01 7.0853418991552770e+00 -7.3918470546723256e+00 -1.6813211901170081e+02 2.3077400363302368e+03 2.0009401346480649e+03 6.1968824359860974e+00 -4.2306730517386679e+00 3.7143594509187210e+01 -6.5437800274368305e+00 3.0001241693327145e+00 3.2405141334765396e+01 3.8219076420974467e+01 -5.7539323718845981e+02 -6.4867711021456444e+02 7.4591711038423858e-01 1.3998098682736253e+00 -6.5887017584024665e-01 -5.3106092646524505e-01 -9.7714666799937211e-01 -1.1234145394337181e+00 1.5293670281329396e+03 1.7651938179742924e+03 -1.7958873168981029e+03 -2.0393926299113218e+01 1.6331691830413657e+01 -3.2163591257699301e+02 3.9424005606248443e+01 5.0536372073602415e+01 -1.1015180616266443e+02 -5.9902151713352396e+02 
      </Row>
      <Row Index="10">
        -8.6149678002847986e+02 1.2679683764247709e+04 7.7481604239762346e+03 -3.9337801556614458e+01 4.3534463402465917e+00 4.8243210378752156e+02 -7.2739767064191255e+01 -7.7850587974797236e+01 4.9070564991379291e+02 -1.2602848134171684e+03 2.7828298708615061e+04 2.3914945986916799e+04 1.1568659704840684e+01 -2.1589216463617049e+01 1.7463728766238356e+02 -5.4584414361555726e+00 4.7164389598795175e+01 -1.1945024590011144e+01 -4.2435463655909308e+02 3.3121055905551248e+03 3.9599714197187386e+03 1.1525400110155169e+02 -3.4404154033610340e+01 3.3206878133217657e+02 -1.3001107693542102e+02 -9.5560294303985586e+01 3.1663786873961362e+02 1.5991995105272181e+03 -1.4826878859818746e+04 -1.2672397886715247e+04 -3.4259040762615214e+01 8.6360886692931814e+01 -7.7195618810525730e+02 2.0452734823442344e+02 2.3286934085702926e+00 -8.4520404718975624e+02 -7.5787945566440430e+02 1.1008223185937944e+04 1.1450411888126915e+04 -1.3347311371851559e+01 -1.5890845935963869e+01 2.4703273332724578e+01 5.1876659312986106e+00 6.1469567138638581e-01 2.9640244718305539e+01 -2.2084366210094304e+03 -7.5033602450461385e+03 2.7388581241866686e+03 1.0748290477832561e+03 -2.8549954340268474e+01 6.5709395344640143e+03 7.2831538358775560e+02 -8.5058051218995683e+02 2.8531286173548692e+03 5.4097884382943139e+03 
      </Row>
      <Row Index="11">
        -6.0653504036071740e+02 6.5923165368634718e+03 2.0312513689999851e+03 3.8539917892314817e+00 -1.2279807622137014e+01 3.9417761615395830e+02 -5.2770686516705609e+01 -3.3574154561443720e+01 4.5482672410140469e+02 -1.3342231602104837e+03 2.3914945995057151e+04 2.1952991245862311e+04 -2.0243664451299992e+00 -9.1747312174702529e+00 1.4463278166596425e+02 -1.7156907664047470e+01 3.7161107124441564e+01 -1.5160195414136524e+01 -4.9203484931445803e+02 8.5292960016357192e+03 9.9855149044722748e+03 1.3512157628876594e+02 -3.1789361178207471e+01 2.8878819586604874e+02 -9.5056906097069302e+01 -8.9503942645815840e+01 2.6643380543201420e+02 1.4793251088203558e+03 -1.5190134423624168e+04 -1.4572058776217336e+04 -5.3985762769853288e+01 7.4480038705022523e+01 -6.4469768617539376e+02 1.7142909851552182e+02 -1.5325025446079962e+01 -7.6724953726860258e+02 -6.4808559910888926e+02 1.0172595324206584e+04 1.1039047715945653e+04 -1.1474876360871152e+01 -1.7483340726445149e+01 2.0266709371651871e+01 4.7948559191558502e+00 5.5738270193586743e+00 2.7531294667832494e+01 7.8649352653669775e+03 -2.1677025988777277e+03 5.7858449675579213e+03 7.9547169818399379e+02 -1.4458757884494730e+02 5.4875386915352447e+03 3.1539607901608815e+02 -7.5379424176092971e+02 2.6555422964028944e+03 6.3868684491112772e+03 
      </Row>
      <Row Index="12">
        -4.4854498728522296e-01 -2.7124909777771929e+01 -2.1502795608596792e+01 -3.4705721235257250e+00 -6.2359565855521737e-01 2.1300379265915819e+00 -3.3067071045924052e+00 -2.4257425157308887e-01 -6.3522427949346327e-01 2.6651992733047289e+00 1.1568659644808767e+01 -2.0243664900300162e+00 2.3698524665842973e+00 1.5946433094441659e-02 3.1052930802049783e-01 7.3603614279499519e-01 -8.0836238028623530e-01 2.7049034161449637e-01 2.1671011239005877e-01 -7.2794562336581228e+00 -1.1927722232854759e+01 -4.8170720063186145e+00 5.0775152163032655e-01 2.4708491788754719e-01 -8.7316698224413536e-01 3.7151353189283398e+00 8.7123916241401744e-01 -9.8550006350052510e-01 3.0105234907207507e+01 3.4706457113561726e+01 6.1779062651320427e-01 4.6050705063900510e-01 -2.1343353115454624e+00 1.7258493454936499e+00 1.0858932553770515e+00 -5.6216802647888697e-01 1.2165368916366277e+00 -1.4398014921798890e+00 -9.2315556816893345e+00 2.6885874407971916e-01 -1.4599817966010933e-01 3.1670300255039932e-02 -3.1301562896284835e-01 -5.5405312202998580e-01 7.6125497010415093e-03 6.5050616387648006e+00 2.9243144459570523e+01 -2.8884519760178968e+01 -1.0937822198448424e+00 -2.6660923600587507e+00 2.0535801068019317e+01 2.4824074339923541e+01 3.0526881301906574e+01 -2.6651201363552208e+00 -2.3094803923824230e+01 
      </Row>
      <Row Index="13">
        -1.4407923573522683e+00 5.2491327372749360e+01 2.9413709919983525e+01 -2.7023976834815422e-01 -1.7795652705874403e+00 8.1217073411017537e-01 1.7312070530539536e-01 2.2880539354472091e+00 -2.9744168373435875e-01 -1.1796859976975527e-01 -2.1589216444092703e+01 -9.1747312220401049e+00 1.5946433082203448e-02 1.1396777619816660e+00 1.6989884886780912e-01 -1.4850700988241489e-01 -4.2258478868156146e-01 1.3834764765880658e-01 7.9492324241169976e-01 -2.2939175395983136e+00 1.1379425278262826e+01 3.6551498286421591e-01 3.9678104655479818e-01 3.3069074374795854e-01 -1.0705585631273587e-01 2.0013967434097424e-01 -1.4099028450836215e-02 -1.3575785441667556e+00 3.2164739199632280e+01 1.5686451130881938e+01 1.0962054911608141e-01 -1.9965586656007772e-01 -1.1136881371341101e+00 7.9737943241489084e-03 -4.9607003405554906e-01 3.2730589273492960e-01 1.1496265884784854e-01 1.1704697519254212e+01 7.9123058222697651e+00 -1.2804547291511817e-01 -2.7247192379466462e-01 -3.7705011109991048e-02 9.9546785773959146e-02 2.4684264405724549e-01 -2.0315710402780546e-02 5.6377248442408018e+01 -1.7969514907256684e+01 1.7508670008881325e+01 2.2610906425733255e+00 -1.1810023543416833e+01 1.0309217809393672e+01 -5.7112166183705482e-01 7.7760383540957703e+00 -1.7938024308086542e+00 -6.8692065587925617e+00 
      </Row>
      <Row Index="14">
        -6.3232178388807787e+00 3.4799201144763629e+02 2.1309940414464842e+02 -5.7456567301954919e-01 -1.3507555342495721e+00 1.3328339526942258e+01 -1.1707416398849091e+00 -8.0145433535676602e-03 1.3039141715815692e+00 -8.0545883218200434e+00 1.7463728869021296e+02 1.4463278271352374e+02 3.1052930802037082e-01 1.6989884783754405e-01 3.6872894698816570e+00 1.0214375591206379e-01 -3.5100938978473550e-02 6.4152034629067778e-01 -8.2625010318445593e+00 1.7952923799102163e+02 1.3931027953693260e+02 -3.9642569273348727e-01 3.7171206815048437e-02 5.8583458143701943e+00 -5.0849155132562152e-01 -1.0523265256315995e-01 1.6187179047091007e+00 1.6813867526014448e+01 -4.8416970206107453e+02 -3.4134423123893561e+02 3.7038744030990400e-01 1.6590531117088401e+00 -1.7551811583415422e+01 1.0321622136683681e+00 5.3212989318970472e-01 -3.4519265854556251e+00 -1.4031595066368481e+00 4.1827607681652331e+01 3.6925888681336261e+01 -8.7589590041483589e-02 -1.9299027570724184e-01 1.7476297786422890e-01 1.5979804661328201e-02 -4.1332733915122377e-02 7.0810167131337004e-02 -8.2126484388764993e+01 -9.4736839080727634e+01 9.5405084168267365e+01 5.2868484996447069e+00 -4.4180606365437241e+00 1.6174633220861142e+02 4.4656032764385500e+00 1.8836686139848586e+00 2.9248237817367331e+00 -1.7696021405203755e+00 
      </Row>
      <Row Index="15">
        -1.9346183485792650e+00 1.4836937480167961e+01 2.3125396518906239e+01 -2.1595302492453818e+00 -3.4603690796657816e-02 1.9154613927537367e-01 -1.1374334801709112e+00 -9.0036205503196243e-01 -1.1115239476688039e+00 2.7577889094394581e+00 -5.4584415891543463e+00 -1.7156907808053859e+01 7.3603614288789609e-01 -1.4850701004447586e-01 1.0214375670271725e-01 8.1688646552041233e-01 -2.6620213754777655e-01 3.2040499140572909e-01 2.5521543408625340e+00 -5.4226152345525790e+01 -5.5895124350993100e+01 -2.3308042684750392e+00 -1.8040697296243757e-01 -1.9315794795018212e-01 -3.0333557172728465e-01 6.4832861130957298e-01 2.7638286003573320e-01 -2.1411945107226278e+00 3.3042005415170614e+01 3.6821836256469808e+01 1.1840361546248701e+00 1.4478241884979953e-01 -1.8520346926355569e-02 3.3723293628643258e-01 8.8847762963445120e-01 7.5969878952169934e-01 -3.6749541903048721e-01 3.5547681253118291e+00 -2.0181991955343044e+00 -8.2625516969629473e-03 1.0297767068488443e-02 -1.6643278726274205e-02 -1.4808117607547522e-02 -2.4959277047696998e-01 -1.4367057123182800e-02 -2.0848801999477459e+01 3.2359696114136270e+01 -3.2013736537568064e+01 5.8623653907094111e+00 1.8271370806401870e+00 1.8205463686356704e+00 1.6500593594275927e+01 7.8920887835683837e+00 -7.0202873921389362e+00 -1.7734434209735177e+01 
      </Row>
      <Row Index="16">
        9.8881598313315289e-01 -2.5339330103579112e+01 -1.7887022037562424e+01 7.9738400055632042e-01 1.5928437184787043e+00 -7.1443347011297398e-01 7.1140020023583794e-01 -2.0378370784840314e+00 1.5119723477331617e+00 -1.4721844028414814e+00 4.7164389454746043e+01 3.7161106957747378e+01 -8.0836238020376694e-01 -4.2258478854887471e-01 -3.5100940541830994e-02 -2.6620213712928908e-01 1.4915702144483411e+00 -2.8649938677339026e-01 3.9638839099264478e-01 -3.0357978814658232e+01 -2.8959275201645777e+01 3.0645054855225844e+00 2.5966789368875065e-01 8.1249117085888667e-02 -5.3898354536823756e-01 -2.6458075192693471e+00 4.4704011447421266e-01 -1.0057890317774758e+00 5.8589200029178997e+01 5.0335742972203924e+01 -6.0959045393860767e-01 -3.0575113221572287e-01 5.6023440591703966e-01 2.8059422038153553e-01 -1.0441670677887629e+00 -1.8246145250941523e+00 -9.9976233642087742e-01 7.8121646911850391e+00 9.2937948349684856e+00 -2.7009361051324066e-01 1.9889817276014671e-01 2.7352781447182645e-02 9.8141275268348857e-02 1.8025121591367310e-01 1.0861807887314518e-02 -3.9934205221097102e+01 -5.6837435480645873e+00 5.8572335155802833e+00 1.5833537315418901e+01 6.5075198106265946e+00 -5.6499030730308473e+00 -4.8936312743145391e+00 -2.8894870225978217e+01 9.1704595526279977e+00 8.2871156868334932e+00 
      </Row>
      <Row Index="17">
        2.9441540852145995e+00 -2.0405617694026652e+01 -9.1135572444527284e+00 -2.9506295773404645e-01 -3.3737785431071643e-02 1.3750630492639360e+00 -9.7479903557011482e-01 5.4872010996109566e-01 -1.0492147485305626e+01 -3.2222934003332715e-01 -1.1945024066428410e+01 -1.5160194817333284e+01 2.7049034119082194e-01 1.3834764760152041e-01 6.4152034942630110e-01 3.2040499013803725e-01 -2.8649938634680439e-01 4.3198775015340996e+00 -7.6553826918461816e+00 1.4586404719591940e+02 1.2245684171144489e+02 -1.3294617753485625e+00 2.3201747476974743e-01 7.1751147313636632e-01 1.2624867839380721e-01 3.7589474443842619e-01 -2.9402668099604057e-01 3.6427464323751084e+00 -1.3114342663740729e+02 -1.1913046144424472e+02 2.1447278028578970e-01 -3.9574602726014108e-01 -1.9555532493332166e+00 5.5898759205222914e-02 -1.9376415066034269e-02 1.0541317060331597e+01 4.8877251842205265e+00 -4.1469369438121753e+01 -5.0144917498386860e+01 -5.3905196043462942e-03 3.8568353301387880e-02 -1.4938670131669307e-01 3.7662411142132202e-02 -6.6464554801005882e-02 -2.1775434409440908e-01 -5.2645426244845567e+01 -7.0622458901390246e+01 7.2014383720304281e+01 1.2413892371989661e+00 -9.6995622169844853e-01 2.2701513370502450e+01 3.5463049368993289e+00 5.7425538626209898e+00 -7.1455369114743547e+01 -2.7921927443270278e+01 
      </Row>
      <Row Index="18">
        -1.9970512462290515e+02 1.5230693684207849e+03 1.0046683309981722e+03 -1.3909707774269009e+00 2.3580634887930501e+00 -1.3923062359466883e+01 8.1359841319701331e+00 -1.4681886544394729e-01 2.5024679971341364e+01 1.5212317478445289e+02 -4.2435465134914881e+02 -4.9203486763403271e+02 2.1671011466546020e-01 7.9492325075784720e-01 -8.2625009108600693e+00 2.5521543714796735e+00 3.9638834871095696e-01 -7.6553826132349769e+00 6.1439027377069135e+02 -6.3373326295555698e+03 -4.5856875484461088e+03 -1.1058145571507794e-01 1.0297897718598166e+00 -1.7946978381545989e+01 -6.1746703355653523e+00 2.0318339282714533e+00 2.7130059468630634e+00 -4.9318113304219668e+02 6.1484745350499416e+03 4.6082934383506390e+03 1.3927277537358069e+00 -4.7765251028959028e+00 3.1173581537215682e+01 2.2617762678565487e+00 -1.3450446113301950e+00 -2.2972031782965061e+01 -1.4555788880245677e+01 7.5733900218182271e-01 2.8872630285244685e+02 2.0857585689883468e-01 7.9707196569099503e-01 4.1748464997220402e-01 1.1034639538968207e+00 1.6128627774852689e-01 2.0588677808406923e+00 1.2554058391015704e+04 6.9296705137660774e+03 -7.0283990027427681e+03 -5.4055894198768328e+00 1.2640094656845164e+01 -2.5498994677634329e+02 8.5090914291028753e+01 2.9378881775384329e+00 1.5487423059079629e+02 -4.7580044319682720e+01 
      </Row>
      <Row Index="19">
        3.3493547247542269e+03 -3.7796447174920278e+04 -4.1295151735673928e+04 4.7874738338807219e+01 -1.1929014248652675e+02 8.0062526423998156e+02 -1.1972646953140884e+02 6.7302641625323304e+01 -6.0905820643974585e+02 -2.0942511186686261e+03 3.3121060316357725e+03 8.5292964783686475e+03 -7.2794564761068159e+00 -2.2939174733583059e+00 1.7952923717073668e+02 -5.4226152903231423e+01 -3.0357977943534024e+01 1.4586404510899740e+02 -6.3373326098307189e+03 1.5643487087294422e+05 1.3338536714642317e+05 -1.0189714242169430e+00 -9.6144663574778122e+01 3.4650423007585891e+02 1.3864558674076542e+02 -3.4878475054536466e+01 -1.9435327202362032e+02 3.7171997288430257e+03 -1.5473695683938707e+05 -1.2262825910729216e+05 -3.6936284640607752e+01 1.5299122667233667e+02 -9.9927550315586814e+02 -1.0926242268761098e+02 2.5088569314095366e+01 7.0168401328356413e+02 1.7644477393705981e+03 2.0991394614031033e+03 -1.4552702585860259e+03 -2.6539482070391651e+00 -2.5686769999751895e+01 -5.7083166375004978e+01 -1.2533478985931481e+01 -2.4800668868044795e-01 -4.0257887566543758e+01 2.9205809805893259e+04 -9.1320776690361090e+03 -5.5740251712612662e+03 -1.1036037530132307e+02 -2.5367127783593264e+02 1.0710461982484656e+04 -1.9409401707616303e+03 2.4462171103946071e+02 -3.8367958677111787e+03 7.4128828059584237e+02 
      </Row>
      <Row Index="20">
        2.2492067675952981e+03 -3.5396882314468457e+04 -3.9358385499056043e+04 7.7785208571622206e+01 -1.0658064447962170e+02 5.9482973001154596e+02 -1.0707673384104419e+02 9.4437753188569332e+01 -4.5584787593647206e+02 -1.8734922339029195e+03 3.9599717865443181e+03 9.9855152925430739e+03 -1.1927722445762583e+01 1.1379425385282048e+01 1.3931027878638042e+02 -5.5895124747114096e+01 -2.8959274459320113e+01 1.2245683980588888e+02 -4.5856875222772833e+03 1.3338536693267117e+05 1.1917370359605488e+05 2.7255484629518833e+01 -7.6988545871820293e+01 3.0216959856518099e+02 1.0814267046945500e+02 -2.7972822234840351e+01 -1.2088093569959619e+02 2.8251130943068074e+03 -1.2713286463400791e+05 -1.0567500049621487e+05 -6.1443432288150234e+01 1.1369299802403799e+02 -7.8863419423290725e+02 -5.9226029505795395e+01 -2.2661114726251981e+00 4.7663971937500764e+02 1.5563393405624836e+03 3.7608125116426163e+03 1.6142286849958700e+03 -4.0340563660479445e-02 -2.3571520671448493e+01 -3.8025665953230295e+01 -1.2677525678645509e+01 5.2139349501447327e+00 -2.6291648086745809e+01 7.3273494901341095e+04 2.5056261955625261e+04 -1.1923804533548173e+04 -2.0012140629925852e+02 -3.3812549506885534e+02 8.1097328193632084e+03 -1.7631331332969517e+03 2.3647596134862647e+02 -2.8333195077854248e+03 2.3810715495172140e+03 
      </Row>
      <Row Index="21">
        4.4805991125957823e+00 -1.1988915092130691e+01 -3.7818628620213417e+01 5.9720864091497106e+00 -1.8105672885451440e+00 -2.1605103083286963e+00 6.8057480436821720e+00 6.2685091480977917e-01 6.0132411380062933e+00 -1.2614394957359817e+01 1.1525400090788877e+02 1.3512157597828457e+02 -4.8170720060941932e+00 3.6551498333147947e-01 -3.9642569988971843e-01 -2.3308042667479185e+00 3.0645054862904431e+00 -1.3294617795700496e+00 -1.1058125956532905e-01 -1.0189759036844144e+00 2.7255480910330817e+01 1.6685759726296908e+01 1.6551905729489671e+00 5.9777158112277751e-01 1.6596263661152422e-01 -9.3806543510610254e+00 3.5122088965701437e-01 7.9351514855999405e-01 8.0573501632413326e+01 3.3295341600900628e+01 -4.4792174981965189e+00 8.6939067315176877e-01 1.5515711066725704e+00 -1.0133928065508762e+00 -5.1748804775343160e+00 -5.6981526722592903e+00 -7.3255535692329792e+00 6.3547961375133525e+01 8.8394586958227123e+01 -1.2092496740613308e+00 -7.8553908307551712e-01 1.1400556026988508e-01 6.0776182525297906e-01 1.5723297590532415e+00 1.8595889417519715e-01 -1.6100463302318985e+01 -1.3427847279376593e+02 1.3459629630997324e+02 3.9566724000244491e+01 -1.8117676196218817e+01 -2.1060614207103857e+01 -5.6984860851740244e+01 -8.7068046181583611e+01 3.6658376091418177e+01 9.5099804886935175e+01 
      </Row>
      <Row Index="22">
        2.7883508772973853e+00 8.7527066059031462e+00 -1.5554998450422985e+00 -2.8370744264237260e+00 -2.9474082490585829e+00 7.5503294535067766e-01 -9.4496576888301220e-01 2.7162851184817782e-01 -5.1669726078586820e-01 3.3291726039311245e+00 -3.4404154297145112e+01 -3.1789361461851517e+01 5.0775152160857040e-01 3.9678104664113789e-01 3.7171209241465775e-02 -1.8040697274840412e-01 2.5966789292638026e-01 2.3201747669399175e-01 1.0297897470809509e+00 -9.6144663008239277e+01 -7.6988545529320334e+01 1.6551905699944029e+00 6.6521596612071514e+00 3.3711486416551584e-01 7.5166513941093127e-01 9.2299312319323690e-01 2.4018698982621345e-01 -5.9502498482591193e+00 1.8964838452171722e+02 1.5471326458761271e+02 -1.0513341827037337e-01 -3.3600744132685778e-01 -9.0330483425788977e-01 2.8978259986934041e-01 -1.2432808631260457e+00 2.4208407808836541e-01 1.3893499184034069e-01 -1.8157836003072092e+01 -1.8346425947774431e+01 -6.7286753249430564e-01 -9.0060344600876907e-01 -7.8296692329705778e-02 -3.7722154056873769e-01 -5.9532792699614534e-02 -1.0600745006095105e-02 -6.8783578994166987e+01 -5.8188885210798645e+01 5.8808708656919649e+01 2.1893378027256844e+01 -3.0744833326419343e+01 9.5682484460810695e+00 -8.5866047580374598e+00 -1.2790319478724705e+00 -2.7599470359836253e+00 -1.2914738084720483e+01 
      </Row>
      <Row Index="23">
        -2.5058797195356771e+01 7.1039249390371185e+02 4.8592596795376983e+02 6.1212272793522970e-01 -1.3818004961001407e+00 1.9649353803835936e+01 -2.5147698919341508e+00 7.9576091880630884e-01 3.7013133213859533e+00 -1.8011888574267907e+01 3.3206878313172763e+02 2.8878819766758676e+02 2.4708491817129641e-01 3.3069074163628898e-01 5.8583458121085812e+00 -1.9315794887970128e-01 8.1249120067980130e-02 7.1751146648572472e-01 -1.7946978586325883e+01 3.4650423043009357e+02 3.0216959889635274e+02 5.9777159333668806e-01 3.3711486037515059e-01 1.2253292498066738e+01 -1.2670919624560064e+00 -2.0614635133722459e-01 2.9039720878511730e+00 4.6017459856297791e+01 -9.4172919286282536e+02 -7.4029665015417095e+02 -1.0682119976917903e+00 1.8396747272693028e+00 -3.0079326295162137e+01 3.8351603143175472e+00 -2.8599978419833860e-01 -7.2747340531908051e+00 -5.9710747568598830e+00 1.2055305355831850e+02 1.1485767208244707e+02 -7.9241905306872695e-03 -2.3887490502664813e-01 1.0789625271604895e+00 -2.1638179863828855e-01 9.9313688779218645e-02 2.5592142733605533e-01 -4.7997638058134726e+01 -1.2713092858406628e+02 1.2774676953238821e+02 6.1702819252457459e+00 -8.3961262602594058e+00 2.3491022251314490e+02 6.1689394001161162e+00 -2.1987297778292003e-01 1.3505246180161407e+01 1.7479135155813253e+01 
      </Row>
      <Row Index="24">
        1.2758317183142136e+01 -5.7763635783328809e+01 -6.3861947306765316e+01 1.5121694864772053e+00 -1.1369568575715903e+00 -1.5035096692919012e+00 1.7389487429016484e+00 1.0635093816798076e+00 -2.1302548242573636e+00 5.6992011595254866e-01 -1.3001107647930118e+02 -9.5056905560841457e+01 -8.7316698263864367e-01 -1.0705585630802261e-01 -5.0849154917267114e-01 -3.0333557286318324e-01 -5.3898354491676059e-01 1.2624867801885564e-01 -6.1746703728660162e+00 1.3864558842330496e+02 1.0814267210533811e+02 1.6596264067854349e-01 7.5166513776310429e-01 -1.2670919576948139e+00 3.2827227559316845e+00 -3.0251089085163585e-01 -2.6072923513056736e+00 -5.6131174572362879e+00 -1.2875278325912055e+02 -8.1741304608649216e+01 9.0907804379509827e-01 6.3037493582462489e-01 3.1092894689906991e+00 -4.0476168766011389e+00 7.8439387456859322e-01 4.7273195942505888e+00 2.3949055727551736e+00 -3.0627886806236724e+01 -3.0661035121697740e+01 -4.8589381448688851e-02 -2.5378803583687876e-01 -5.6630135781795421e-01 5.7287298002542647e-02 2.8374754916880462e-02 -1.1294524557054916e-01 -8.2854570326490830e+01 -8.4394523162715871e+01 8.5262420208631170e+01 -1.4064091858791013e+01 -6.8291891999420233e+00 -1.2002217487175571e+01 -2.4260120331590080e+01 2.1313481281161577e+00 -1.5527788068384183e+01 1.7358595939930126e+00 
      </Row>
      <Row Index="25">
        -4.3556876428738818e+00 1.3002005930094175e+01 2.0003419037504123e+01 -1.9685562310592104e+00 6.1298251752805299e-01 1.6274089536670147e+00 -4.4605043171276435e+00 3.0849417178665135e+00 -2.5998669134658456e+00 7.0853418726261204e+00 -9.5560294299789774e+01 -8.9503942600160840e+01 3.7151353188156619e+00 2.0013967419755829e-01 -1.0523264825664569e-01 6.4832861051449697e-01 -2.6458075198301856e+00 3.7589474712025961e-01 2.0318338238054316e+00 -3.4878472825333432e+01 -2.7972820454332126e+01 -9.3806543519348224e+00 9.2299312201403449e-01 -2.0614634433495169e-01 -3.0251088839884588e-01 1.0912732860569804e+01 -1.2848454453659031e-01 1.2694688450835248e+00 1.1612018322034935e+01 3.2374728867161551e+00 -1.0489539920690945e+00 -1.6515819585036362e+00 -1.4077663626632404e+00 2.3724186691500395e+00 3.2346763701468717e-02 2.3015567011777551e+00 3.4144700274981519e+00 -5.4082323339512200e+01 -5.3643154048085215e+01 1.3080473846191798e+00 2.2279845088365052e-01 4.1295020506836227e-02 -7.4548000692627037e-01 -8.2482055137203525e-01 -1.5222095378350948e-02 5.7176794809818603e+01 4.1046091072719534e+01 -4.2314255900366348e+01 -4.9701557144338665e+01 -2.2576704869179842e-01 8.8204059989880736e+00 2.3972168252985796e+01 7.7967102302454265e+01 -1.3817120648342030e+01 -2.9480142428074828e+01 
      </Row>
      <Row Index="26">
        -2.1943372339848764e+01 3.8913232135453619e+01 3.5263382727493735e+01 -1.6798534471879520e+00 3.1684200346126090e-01 2.9838552079662577e+00 -2.4177557730301089e+00 -9.4071019939542566e-01 7.8254924919156394e+00 -7.3918468977798639e+00 3.1663786768743557e+02 2.6643380415153530e+02 8.7123916353988307e-01 -1.4099027922839014e-02 1.6187178909774644e+00 2.7638286377811028e-01 4.4704011479859673e-01 -2.9402668537215959e-01 2.7130062441469818e+00 -1.9435327985249091e+02 -1.2088094254212245e+02 3.5122088346685132e-01 2.4018699638747654e-01 2.9039720616102951e+00 -2.6072923557726622e+00 -1.2848453967114892e-01 8.3088380085711719e+00 1.8999821882909991e+01 3.5289636208218019e+02 2.1292594274838777e+02 -3.8023473841334976e-01 7.5493360681517574e-01 -5.8524402286415818e+00 3.9678872789001582e+00 -1.0215396981459435e-01 -1.6743733276936382e+01 -1.0200783040500996e+01 1.4129925830478896e+02 1.4102178499659024e+02 -7.6113756707592906e-02 -2.7435724296974917e-01 4.5992080209623376e-01 -1.5398234241862752e-01 -8.1629939510926786e-02 6.5144944499150825e-01 3.6482757500055413e+01 -4.4489191071158295e+01 4.1681095437920604e+01 1.8134349742593287e+01 -4.7324759660604911e+00 4.6351828780005704e+01 1.8970967827469963e+01 -3.3818534638251609e+00 5.0553978814328929e+01 3.9697590762705602e+01 
      </Row>
      <Row Index="27">
        -3.5150570273597356e+02 5.1485580247777298e+03 5.0996673466327911e+03 4.0783344806268360e+00 7.4861967859942524e-01 -3.4194992196350142e+01 -7.4796256204838301e+00 -1.7046497113669830e+00 1.9382122625921056e+01 -1.6813212080244182e+02 1.5991995237906779e+03 1.4793251242250606e+03 -9.8550005615055625e-01 -1.3575785708338799e+00 1.6813867460113102e+01 -2.1411945333506992e+00 -1.0057890034627235e+00 3.6427463936319384e+00 -4.9318113602395755e+02 3.7171997614659240e+03 2.8251131226280872e+03 7.9351526542154716e-01 -5.9502498885593011e+00 4.6017459740770711e+01 -5.6131174598549656e+00 1.2694687763150796e+00 1.8999822075662792e+01 8.9169685066690772e+02 -8.6333460798082269e+03 -7.7663239071587259e+03 -4.7526923997305062e+00 7.2001538188253420e+00 -3.1648521309656417e+01 1.8144490604784263e+01 1.8943535176435944e+00 -4.1694426033724454e+01 -7.5050403226706777e+01 4.7993935268533698e+02 4.2661424871330661e+02 1.2437581629209369e+00 1.2304593456458335e-01 1.0842251271771993e+01 -1.8401054704870958e+00 -5.9022641501556450e-02 3.2669431657910062e+00 -9.9482752223725674e+03 -5.2015583312380086e+03 5.2425395561115702e+03 -3.9215836505259176e+01 9.8611105432217983e+00 -2.1661945368371823e+02 8.7064428729468091e+00 8.8590329452319452e+00 5.5076205894297459e+01 3.7786274884348495e+02 
      </Row>
      <Row Index="28">
        1.6135102637721313e+03 -1.0370956577966006e+05 -7.3810348761658854e+04 -9.8877716570139455e+01 2.7545026546521694e+02 -1.2291496760178075e+03 4.2698624995283353e+01 -2.2758765365259023e+01 2.9694096388303751e+02 2.3077400990778588e+03 -1.4826879494421431e+04 -1.5190135109676339e+04 3.0105235079226077e+01 3.2164739663619912e+01 -4.8416970296152431e+02 3.3042006350455267e+01 5.8589199185806137e+01 -1.3114342521843469e+02 6.1484746065009931e+03 -1.5473695799099491e+05 -1.2713286573153934e+05 8.0573496829123542e+01 1.8964838632987394e+02 -9.4172919580009568e+02 -1.2875278237752579e+02 1.1612021047283633e+01 3.5289635421981347e+02 -8.6333461116814851e+03 2.9899575937362172e+05 2.3369349901625214e+05 2.0959715827403670e+01 -3.1233431297267356e+02 2.0905653203196944e+03 6.6576024478527870e+01 -1.0331700425884264e+02 -5.6563908895618658e+02 -9.8428269638816528e+02 -6.1362706035341271e+03 -3.4509676809993648e+03 -7.5959974869664819e+00 7.9509767229179715e+00 -9.8275550544069148e+00 1.0123087157056943e+01 6.0656264569639120e+00 -1.3550067430608850e+01 -9.1976326238022593e+03 3.7065521255953354e+02 3.7429350795988576e+03 1.0027796765168969e+03 -4.3330947517502818e+02 -1.7405331141406034e+04 1.1611645838954264e+03 -5.6851633346737867e+02 4.0158640560643653e+03 -1.7066101377089199e+03 
      </Row>
      <Row Index="29">
        2.6587903342374971e+03 -8.3355269510113561e+04 -6.1674112626176757e+04 -1.2263036451289372e+02 1.8945580883244838e+02 -5.5833144167438059e+02 3.6202694761539533e+01 -5.1071722809210769e+01 1.9570535497681885e+02 2.0009401815759359e+03 -1.2672398378203381e+04 -1.4572059300933612e+04 3.4706457241110911e+01 1.5686451473813577e+01 -3.4134423188231085e+02 3.6821836930215795e+01 5.0335742308889166e+01 -1.1913046023790434e+02 4.6082934898699668e+03 -1.2262825985719927e+05 -1.0567500122019472e+05 3.3295337924460910e+01 1.5471326590354087e+02 -7.4029665237128506e+02 -8.1741303786635712e+01 3.2374749235423224e+00 2.1292593645319539e+02 -7.7663239329509233e+03 2.3369349892107159e+05 1.9047664652785999e+05 5.6070226386792456e+01 -2.1510800301725689e+02 1.3295337716534541e+03 -6.3875126937073219e+00 -5.4241061304957839e+01 -3.3885966368326814e+02 -7.0352999218179457e+02 -6.5969219869826302e+03 -5.3470664543580215e+03 -1.1048954771762681e+01 4.9342792858529378e+00 -4.6017714288503157e+01 1.1485252228448871e+01 -3.6973349573088399e-01 -2.2357809802421286e+01 -3.9507305931936862e+04 -1.7161658189413632e+04 1.1629389038789071e+04 1.0034213111787431e+03 -2.8089717177657303e+02 -9.0435628132863021e+03 9.6515296386631780e+02 -4.7023109498388862e+02 2.9816908852297706e+03 -3.2522231993095265e+03 
      </Row>
      <Row Index="30">
        -2.0142156628746908e+00 4.3140457389983858e+01 4.9613192492652495e+01 -6.7817109111166189e+00 -1.3632951225182808e+00 -4.2723664886683110e-02 7.1427922625737850e-01 -3.6708826885381143e+00 -2.1807572301283855e+00 6.1968824149524036e+00 -3.4259040772288685e+01 -5.3985762747550844e+01 6.1779062651508809e-01 1.0962054883655270e-01 3.7038744368125975e-01 1.1840361542353328e+00 -6.0959045457576622e-01 2.1447278236183642e-01 1.3927276684292700e+00 -3.6936282830176538e+01 -6.1443430840313489e+01 -4.4792174996024414e+00 -1.0513341957988891e-01 -1.0682119918014248e+00 9.0907804583130980e-01 -1.0489539918464033e+00 -3.8023474318735140e-01 -4.7526923324019368e+00 2.0959713293639691e+01 5.6070224467608881e+01 7.7966532447766728e+00 1.2379597572182188e+00 1.0856619590458338e+00 -4.2773481439576990e+00 5.7921306886987480e+00 2.5927513601859093e+00 1.8098401257156473e+00 3.5512168849484320e+00 -1.9402293587458139e+01 -5.6019648758284535e-01 -2.0983921325112087e-01 -3.6318801597714889e-01 2.9767839708227795e-01 -5.8267198231446182e-01 -9.8366680641104098e-02 -6.9173065781021592e+01 6.2036115612622226e+01 -6.0625453590963893e+01 1.4995052380569684e+01 -2.2510444181857081e+00 8.8568883751078875e+00 1.8060373290796559e+01 8.4949289254064766e+00 -9.6570012756636512e+00 -5.8347130308231989e+01 
      </Row>
      <Row Index="31">
        -3.2278729074497510e+00 2.3502440420704963e+02 1.5272205683538630e+02 -3.4585188711537853e+00 -7.7464847962757517e+00 5.6521943921611353e+00 8.5215826413983109e-01 -2.6889686464738816e+00 2.7178079120397030e+00 -4.2306731162460327e+00 8.6360887418136031e+01 7.4480039442896654e+01 4.6050705059921881e-01 -1.9965586722524620e-01 1.6590531120044609e+00 1.4478241837697681e-01 -3.0575113121167874e-01 -3.9574602966553307e-01 -4.7765251747836466e+00 1.5299122715827204e+02 1.1369299850070519e+02 8.6939067809393578e-01 -3.3600744308711117e-01 1.8396747296542224e+00 6.3037493421118573e-01 -1.6515819614438669e+00 7.5493361625932209e-01 7.2001538654458441e+00 -3.1233431250739352e+02 -2.1510800271899015e+02 1.2379597548481343e+00 1.0350388428576995e+01 -6.0608355662476985e+00 -2.1578172641529836e+00 4.7153449441836983e+00 -3.5434086711414632e+00 -1.8003139557443684e+00 4.9093690358921059e+01 4.1385677865504711e+01 -5.8300444159415843e-01 -1.5133133625415460e+00 8.1436237112579885e-02 3.2067331426665813e-01 -4.2215300865918126e-01 1.2946937241389511e-01 -5.4984492420612241e+01 -5.3388024852561614e+01 5.3312494674023071e+01 2.2257156331129810e+01 -2.1200965234480329e+01 6.7079614988052555e+01 2.0605753881408262e+00 -6.3362055965343034e-01 1.4016832794333059e+01 -6.7619259344630223e-01 
      </Row>
      <Row Index="32">
        -2.6000842402993904e+01 -9.8878884396071408e+02 -3.0384460059579681e+02 1.1796572731580000e+00 6.8375446806267064e+00 -8.7892760358780464e+01 7.1401967896227347e+00 -2.7095036090404392e+00 -3.2598310232567655e+00 3.7143594858491284e+01 -7.7195619287173815e+02 -6.4469769103477199e+02 -2.1343353107678809e+00 -1.1136881342478091e+00 -1.7551811574286432e+01 -1.8520343960915397e-02 5.6023439691455224e-01 -1.9555532284374664e+00 3.1173581656057706e+01 -9.9927550188808493e+02 -7.8863419427565373e+02 1.5515710673098511e+00 -9.0330482657762368e-01 -3.0079326291027517e+01 3.1092894861944131e+00 -1.4077663410375862e+00 -5.8524403065319461e+00 -3.1648521289087867e+01 2.0905653092520142e+03 1.3295337638825995e+03 1.0856619753685095e+00 -6.0608355588383915e+00 1.0603427342613088e+02 -7.5245794909447650e+00 -1.5480451163045927e-01 1.2464151080502853e+01 2.5535457251865576e+00 -2.1239381465673281e+02 -1.9541433122182914e+02 -7.2084556026208446e-03 9.6187399422889541e-01 -5.0650467961164569e-01 6.4718713185986942e-01 -4.4770962908893652e-02 -2.1480438618160846e-01 2.8388665722387486e+01 4.1197778544994071e+02 -4.1628651381763200e+02 -1.8824368566228330e+01 2.5058292282656566e+01 -9.8221045684185560e+02 -2.0176456876763893e+01 -2.0843733269762961e+01 -1.9417270626648218e+01 -1.6174970219044894e+01 
      </Row>
      <Row Index="33">
        -1.8652960065086543e+01 9.2310954344558510e+01 8.7841735197150371e+01 2.1805685949584586e-01 2.3356339848883181e+00 3.2172289876957620e+00 -5.7274073059608241e+00 9.8202349942221190e-01 3.8809083657214671e+00 -6.5437799577471445e+00 2.0452734770214082e+02 1.7142909787601195e+02 1.7258493461880278e+00 7.9737942005806417e-03 1.0321622063036600e+00 3.3723293806318111e-01 2.8059422058055361e-01 5.5898757376962038e-02 2.2617763772793751e+00 -1.0926242641464881e+02 -5.9226032839730777e+01 -1.0133928100379421e+00 2.8978260291096147e-01 3.8351603000384538e+00 -4.0476168785418984e+00 2.3724186719040290e+00 3.9678872786766988e+00 1.8144490529685587e+01 6.6576028473567987e+01 -6.3875094533972359e+00 -4.2773481419095560e+00 -2.1578172695664932e+00 -7.5245794499973169e+00 9.3125189119920542e+00 -3.0149250616664176e+00 -8.2505631218603313e+00 -6.8491280489907611e+00 7.5147249684499229e+01 8.4540221979603942e+01 4.1591037641686901e-01 2.3571939955517651e-01 1.3021611062987695e+00 -5.8219973743387077e-01 -7.0337506551946483e-02 3.0336472034025252e-01 9.8809282103846726e+01 3.5729635738894018e+01 -3.7187757268574636e+01 8.2619890914031586e+00 3.1799879344676469e+00 2.8763222179077601e+01 3.2612161288067888e+01 9.6782371096514055e+00 2.1666265679424889e+01 3.1510611401470641e+01 
      </Row>
      <Row Index="34">
        -3.4467737352056207e+00 6.8676778269297358e+01 6.5321897382964252e+01 -5.1931812409527254e+00 -2.5124791643825404e+00 6.8153435255597472e-01 -1.8383854303628056e-01 -4.5666051109325565e+00 -6.1529722755243910e-01 3.0001241331157091e+00 2.3286936193098313e+00 -1.5325025193840990e+01 1.0858932553673810e+00 -4.9607003442133646e-01 5.3212989526782906e-01 8.8847762904034155e-01 -1.0441670678415136e+00 -1.9376414254939078e-02 -1.3450446942860559e+00 2.5088570862680541e+01 -2.2661101800776891e+00 -5.1748804766497685e+00 -1.2432808645067643e+00 -2.8599978026331585e-01 7.8439387557744356e-01 3.2346762853975974e-02 -1.0215396990320258e-01 1.8943535662713051e+00 -1.0331700566891028e+02 -5.4241062388940229e+01 5.7921306877699852e+00 4.7153449456086483e+00 -1.5480452475886430e-01 -3.0149250616212875e+00 7.7691742810021509e+00 5.6505601767933555e-01 1.5921687145501329e+00 1.3241950977862214e+00 -1.3635529781623386e+01 -1.9314361767931504e-01 -3.4965710298705599e-01 -8.3177917867864257e-02 1.5867292685754808e-01 -9.4420056417427922e-01 -3.6171482507081576e-02 -5.4251514111787742e+01 4.4506602328993608e+01 -4.3921342562084796e+01 4.4391206032864616e-01 1.2567686717488327e+00 1.2081188700971445e+01 1.6178645752984806e+01 1.7777483529761412e+01 -2.2966797256269249e+00 -3.7547922088739980e+01 
      </Row>
      <Row Index="35">
        5.4569623077466062e+01 -4.8872032945134538e+02 -3.2370781953405753e+02 5.2554957125266810e-01 2.5646781734485558e-01 -5.4310326342266535e+00 2.1989247258194382e+00 2.5151631795151843e+00 -4.8574017731598019e+01 3.2405140900109728e+01 -8.4520404421554690e+02 -7.6724953362015344e+02 -5.6216803034226359e-01 3.2730589262791909e-01 -3.4519265430335508e+00 7.5969877831448684e-01 -1.8246145262869504e+00 1.0541317073417616e+01 -2.2972032571812719e+01 7.0168403643985425e+02 4.7663973976685077e+02 -5.6981526530000792e+00 2.4208405990845971e-01 -7.2747339722932480e+00 4.7273196076388793e+00 2.3015566861531624e+00 -1.6743733278370428e+01 -4.1694425519440756e+01 -5.6563911275059297e+02 -3.3885968281916422e+02 2.5927513472946657e+00 -3.5434086404838183e+00 1.2464150844310396e+01 -8.2505631243104744e+00 5.6505601781736914e-01 6.6837005087007213e+01 4.3144533423963644e+01 -4.7949140383984246e+02 -5.3614832571430145e+02 2.4277971073296101e-01 7.5358785717356369e-01 -1.3172428363226207e+00 2.5654509786104551e-01 -1.5384726552133099e-01 -2.5491912858598234e+00 -2.2239461345041491e+02 6.1490522819604593e+01 -5.1767652264374078e+01 -3.0643599792554099e+01 9.3571982266383884e+00 -9.0985267519118679e+01 -2.1594441222573508e+01 2.8228712026420851e+01 -2.9170425891432325e+02 -2.7342639925902131e+02 
      </Row>
      <Row Index="36">
        7.5405583140840534e+01 -1.3477831511230647e+03 -1.2447806684477077e+03 -9.2127878552673792e-02 9.6634876833559247e-01 5.9660502568327729e+00 -2.6140737509548444e+00 3.5348156997770275e-01 -3.3336316456157419e+01 3.8219075933921658e+01 -7.5787944954623333e+02 -6.4808559251932297e+02 1.2165368840638848e+00 1.1496266385756826e-01 -1.4031594565719274e+00 -3.6749543209816693e-01 -9.9976233240795409e-01 4.8877251801971511e+00 -1.4555789099438755e+01 1.7644477558757378e+03 1.5563393569380632e+03 -7.3255535200551094e+00 1.3893497475468952e-01 -5.9710746499093119e+00 2.3949055666071359e+00 3.4144699993958056e+00 -1.0200782982801684e+01 -7.5050402858546477e+01 -9.8428271345354256e+02 -7.0353000754051232e+02 1.8098401051731798e+00 -1.8003139190401498e+00 2.5535454668020243e+00 -6.8491280200549340e+00 1.5921687073032444e+00 4.3144533237105463e+01 8.3627353185623420e+01 -6.2887551463718148e+02 -6.9293409813170535e+02 4.5378387047296087e-01 1.2141976319202250e+00 -2.6040806667250620e+00 -3.2179421252720886e-01 -4.8834608523663681e-01 -2.9183363370637352e+00 2.4643980950938421e+03 1.3507727314102499e+03 -1.3349190936374384e+03 -2.3015424302054857e+01 1.8882900426239587e+01 6.0123391699025774e+01 -3.8397651972390001e+01 2.9777703286516996e+01 -1.8481704717124023e+02 -3.4171635644945945e+02 
      </Row>
      <Row Index="37">
        -5.8418260118387991e+02 8.5510135408502392e+03 5.5862589121807414e+03 -2.0729828199764597e+01 -4.4028219177445862e+01 9.6965331866538691e+01 -3.6113746287719550e+00 4.9384388090111315e+00 3.3679270902869757e+02 -5.7539323293759253e+02 1.1008223172972250e+04 1.0172595303911861e+04 -1.4398014436319500e+00 1.1704697507462697e+01 4.1827606984131307e+01 3.5547682658816484e+00 7.8121647583029699e+00 -4.1469369787861069e+01 7.5735167465245468e-01 2.0991391154204953e+03 3.7608122222219918e+03 6.3547961351963750e+01 -1.8157835803238793e+01 1.2055305234873151e+02 -3.0627887130161582e+01 -5.4082323241658742e+01 1.4129925885267585e+02 4.7993934413419777e+02 -6.1362701861088644e+03 -6.5969216651849292e+03 3.5512169411013019e+00 4.9093689847348287e+01 -2.1239381113646414e+02 7.5147250022725530e+01 1.3241949945295346e+00 -4.7949140549854565e+02 -6.2887551881413538e+02 1.1609506048038364e+04 1.0948379574502278e+04 -7.0926658617840985e+00 -2.2474479432324813e+01 2.2292614099772027e+01 4.2033735010941200e+00 5.6140873704863612e+00 3.1516274935180718e+01 1.1856588052207779e+04 3.4845254428052103e+03 -3.3938346609149430e+03 4.9599516521599980e+02 -3.5017428070759433e+02 1.3160483889377047e+03 4.8722455346819720e+02 -2.5355057262538025e+02 1.9223294413933627e+03 2.5596059651740725e+03 
      </Row>
      <Row Index="38">
        -6.7887013044770845e+02 8.0838946447820690e+03 4.8839371736338435e+03 1.1983055613090983e+00 -3.8473486100672744e+01 8.3668254444542981e+01 9.0614240595423325e+00 1.1048108813396539e+01 3.8472371541501343e+02 -6.4867710476260936e+02 1.1450411865610404e+04 1.1039047683962706e+04 -9.2315556305093196e+00 7.9123058184522961e+00 3.6925887968456664e+01 -2.0181990342534846e+00 9.2937948924081866e+00 -5.0144917835749311e+01 2.8872631693759377e+02 -1.4552706456057790e+03 1.6142283569433041e+03 8.8394586852671637e+01 -1.8346425705528588e+01 1.1485767082647612e+02 -3.0661035454214243e+01 -5.3643153895551222e+01 1.4102178545661081e+02 4.2661424011477584e+02 -3.4509672483585227e+03 -5.3470661186472789e+03 -1.9402293486400595e+01 4.1385677335725632e+01 -1.9541432741601852e+02 8.4540222277308203e+01 -1.3635529860643146e+01 -5.3614832709944949e+02 -6.9293410240301637e+02 1.0948379566950254e+04 1.1202676333627420e+04 -6.3064465644123402e+00 -2.0861785766271908e+01 2.2750281214854883e+01 3.5283468266261480e+00 7.4376456270765630e+00 3.5747947319077866e+01 1.8024683818595542e+04 4.8345725528409603e+03 -4.8280850807803836e+03 3.9143500187560130e+02 -3.1371164582404981e+02 1.1483057273709401e+03 3.7216857601811216e+02 -3.1899422850803626e+02 2.2004898643756769e+03 4.2259744753014966e+03 
      </Row>
      <Row Index="39">
        -1.3099942633023947e+00 -2.4410382255849510e+00 1.6464340738044649e+00 9.6398255950362710e-01 1.1106658950147903e+00 -4.0866745347689637e-02 -4.9116102304239462e-01 4.3979038150480676e-01 -2.2025252347944324e-01 7.4591710832840130e-01 -1.3347311372873664e+01 -1.1474876358533750e+01 2.6885874408318333e-01 -1.2804547292176238e-01 -8.7589589744963448e-02 -8.2625517766485856e-03 -2.7009361054651748e-01 -5.3905193788112982e-03 2.0857584809543361e-01 -2.6539480364690942e+00 -4.0340429724494697e-02 -1.2092496741273742e+00 -6.7286753255554743e-01 -7.9241901104076806e-03 -4.8589381267660381e-02 1.3080473846460237e+00 -7.6113756996903703e-02 1.2437581675593194e+00 -7.5959976513752947e+00 -1.1048954891339118e+01 -5.6019648760742058e-01 -5.8300444140123142e-01 -7.2084571116723950e-03 4.1591037618420490e-01 -1.9314361762395293e-01 2.4277971190890790e-01 4.5378387294840872e-01 -7.0926658755405665e+00 -6.3064465824061173e+00 3.6647591121661716e-01 2.5779118785631600e-01 3.6223666173970930e-02 -1.1206640837496606e-01 -5.3089110020902108e-02 4.5739256928165606e-03 2.0454637363833598e+01 1.2043417988921627e+01 -1.2653790316569488e+01 -1.2577914334289002e+01 6.0935312456344803e+00 -2.3960011968030672e+00 1.2040709750302554e+00 8.3297848720883199e+00 -1.1280679624934624e+00 -1.9464463122991837e+00 
      </Row>
      <Row Index="40">
        -6.1852712877976712e-01 -1.2289960606352198e+01 -5.5434894864302109e-01 1.3034165560979716e+00 2.2944034275604963e+00 -9.5758556087708513e-01 -9.6055957849383589e-02 -3.8892288228225880e-01 -4.8222065487322396e-01 1.3998098643316830e+00 -1.5890845973324685e+01 -1.7483340753686726e+01 -1.4599817968090889e-01 -2.7247192380279017e-01 -1.9299027460416340e-01 1.0297766870731806e-02 1.9889817255649689e-01 3.8568354186242715e-02 7.9707193939965748e-01 -2.5686769408328637e+01 -2.3571520206142655e+01 -7.8553908361607228e-01 -9.0060344625633704e-01 -2.3887490334748396e-01 -2.5378803508142089e-01 2.2279845105660456e-01 -2.7435724473416201e-01 1.2304595177214162e-01 7.9509759725831488e+00 4.9342787276578672e+00 -2.0983921315779241e-01 -1.5133133617625099e+00 9.6187398916906686e-01 2.3571939849053436e-01 -3.4965710265421990e-01 7.5358786296257207e-01 1.2141976416496605e+00 -2.2474479487137373e+01 -2.0861785838694008e+01 2.5779118786518440e-01 6.0909112269173482e-01 1.4366456734976607e-03 -3.9760620612178776e-02 -1.2122220718229215e-03 -4.4903839969089532e-02 1.5023387713387137e+00 2.2240007024411380e+01 -2.2741026792071054e+01 -9.1610674505224008e+00 1.2864605557935867e+01 -1.0739662556671369e+01 8.0889313892492831e-01 -1.7891533381166649e+00 -3.0926465154497684e+00 -4.9443129424417975e+00 
      </Row>
      <Row Index="41">
        -1.3384174655754064e+01 1.2508824874960035e+02 1.3380402221521740e+02 1.5712287850564621e-01 1.7662956951437536e-01 -1.2760584713655874e+00 -3.8084019320510976e-01 -2.2988096629006805e-02 1.0678608866667147e+00 -6.5887017384394042e-01 2.4703273189757478e+01 2.0266709200922865e+01 3.1670300546490893e-02 -3.7705011504463926e-02 1.7476297823666087e-01 -1.6643278397115324e-02 2.7352781056535491e-02 -1.4938670039649882e-01 4.1748459863418930e-01 -5.7083166296295047e+01 -3.8025666077984710e+01 1.1400555787119515e-01 -7.8296692396223277e-02 1.0789625273928258e+00 -5.6630135695925587e-01 4.1295021708492641e-02 4.5992079884772608e-01 1.0842251321932061e+01 -9.8275556688485040e+00 -4.6017714648820345e+01 -3.6318801530112310e-01 8.1436237129178579e-02 -5.0650467870131799e-01 1.3021611050229467e+00 -8.3177917066592499e-02 -1.3172428271447352e+00 -2.6040806669375391e+00 2.2292613946874425e+01 2.2750281034772794e+01 3.6223666302247159e-02 1.4366460016184135e-03 9.1696720672302223e-01 -5.6338492030426401e-02 -1.6023833211251670e-03 9.1010391684086756e-02 1.0898457367297624e+01 3.1263265019236144e+01 -3.2306139301760510e+01 4.8550689869077956e-02 -2.6186589871919352e-02 -2.5845130225142714e+01 4.4254143142064972e+00 -1.8697996384211946e-01 5.1341939607501814e+00 -3.4383741556179217e+00 
      </Row>
      <Row Index="42">
        3.9001841415965965e-02 1.5915161688462549e+01 1.3191712405914712e+01 4.4697457264398111e-02 -2.5220846753175152e-01 -4.4783690141605170e-01 7.6443304372101917e-01 -7.0161185377770607e-02 1.7498523167575719e-02 -5.3106092514070835e-01 5.1876659118279802e+00 4.7948558933398475e+00 -3.1301562894522661e-01 9.9546785762207435e-02 1.5979804858087920e-02 -1.4808117530811682e-02 9.8141275186037547e-02 3.7662411253059025e-02 1.1034639503641279e+00 -1.2533478996743831e+01 -1.2677525709931947e+01 6.0776182489639474e-01 -3.7722154057837437e-01 -2.1638179825910009e-01 5.7287298105163947e-02 -7.4548000677780735e-01 -1.5398234295956570e-01 -1.8401054628418905e+00 1.0123086999637659e+01 1.1485252117150763e+01 2.9767839724210354e-01 3.2067331440480396e-01 6.4718713158320784e-01 -5.8219973759467636e-01 1.5867292701879521e-01 2.5654509909684142e-01 -3.2179421297626448e-01 4.2033734891953038e+00 3.5283468103029385e+00 -1.1206640836297838e-01 -3.9760620582893119e-02 -5.6338491935229204e-02 1.7973294787843463e-01 5.9264938675266388e-02 -2.9760765776072673e-02 -4.8404492094493037e+00 3.1697233218170862e-02 7.7051558261861608e-02 2.2233933179404217e+00 -1.6189758761954831e-02 -3.3777878960447749e+00 -1.2901665644940987e+00 -4.1857759506172751e+00 -5.6156040871816248e-01 2.0646716283146382e-01 
      </Row>
      <Row Index="43">
        2.0080341550341285e-01 5.5915536154561725e+00 1.6439161167114591e-01 1.0805590282230071e+00 -1.1929247839970003e-01 -7.2921825867561907e-02 6.7639681580719468e-01 8.9427311930101894e-01 2.8770807491680195e-01 -9.7714666324489663e-01 6.1469566277371479e-01 5.5738269987676610e+00 -5.5405312201852208e-01 2.4684264409015633e-01 -4.1332734254962311e-02 -2.4959277033693450e-01 1.8025121595101368e-01 -6.6464555092411892e-02 1.6128629068488998e-01 -2.4800701948155979e-01 5.2139346691370099e+00 1.5723297589878058e+00 -5.9532792509431012e-02 9.9313688263181654e-02 2.8374754606341146e-02 -8.2482055128055976e-01 -8.1629939095300585e-02 -5.9022645405437224e-02 6.0656267308910818e+00 -3.6973328664896865e-01 -5.8267198218478899e-01 -4.2215300891435126e-01 -4.4770960537147304e-02 -7.0337506257731164e-02 -9.4420056418414333e-01 -1.5384726698632001e-01 -4.8834608948458680e-01 5.6140873735320227e+00 7.4376456353196669e+00 -5.3089110011093787e-02 -1.2122220266974071e-03 -1.6023830814855811e-03 5.9264938701443004e-02 2.7275344513984212e-01 8.1325961739288632e-03 1.4740892060132069e+01 -1.1583714598895442e+01 1.1448727205060543e+01 1.6904825232128200e+00 -1.8073162615501439e+00 -7.1047406132109270e-01 -6.1005801703747036e+00 -6.6648948260454421e+00 1.7345857965136560e+00 7.1579584046301328e+00 
      </Row>
      <Row Index="44">
        -4.6295506748166719e+00 6.2291313895372369e+01 5.0883979547732210e+01 -2.9633353989709121e-02 -9.7282723534419802e-02 -1.1813050405649506e-01 6.2523862385873485e-02 -4.1116783421500713e-02 1.7974753446384781e+00 -1.1234145235863107e+00 2.9640244586362144e+01 2.7531294503956488e+01 7.6125499425963028e-03 -2.0315710569633438e-02 7.0810165385111645e-02 -1.4367056604136508e-02 1.0861807878143281e-02 -2.1775434449657283e-01 2.0588677984783743e+00 -4.0257888497821696e+01 -2.6291648947218562e+01 1.8595889291124479e-01 -1.0600744383811977e-02 2.5592142397404016e-01 -1.1294524601254397e-01 -1.5222094492287397e-02 6.5144944464540799e-01 3.2669431587548452e+00 -1.3550066551204301e+01 -2.2357809071671433e+01 -9.8366680112370375e-02 1.2946937099754408e-01 -2.1480437604610492e-01 3.0336472041302187e-01 -3.6171482403233313e-02 -2.5491912848175922e+00 -2.9183363459906113e+00 3.1516274839730514e+01 3.5747947232562460e+01 4.5739257915320408e-03 -4.4903839632317144e-02 9.1010392058758494e-02 -2.9760765771811748e-02 8.1325960567140143e-03 2.4831916931759102e-01 3.6912251168938155e+01 1.0544838358351207e+01 -1.1177598013284346e+01 2.8674338265514265e-01 -5.8317753005139394e-01 -5.9989989234317065e-01 1.5190710482075076e+00 -3.5364700736273047e-01 8.8632334517977149e+00 1.8115594754821359e+01 
      </Row>
      <Row Index="45">
        -5.0585574378393321e+03 -2.5061155301703700e+04 -4.3824688045006340e+04 1.1075851525479811e+02 -4.2980831401684554e+01 4.0649595609484095e+01 -7.9147174903191626e+00 1.6334209852834465e+02 1.4504298981536340e+02 1.5293670475863983e+03 -2.2084364878773722e+03 7.8649353004629229e+03 6.5050613433686522e+00 5.6377249020937597e+01 -8.2126482029701947e+01 -2.0848801505704614e+01 -3.9934205289333477e+01 -5.2645427345853932e+01 1.2554058459611548e+04 2.9205808273620860e+04 7.3273493610547492e+04 -1.6100463407601637e+01 -6.8783578420717959e+01 -4.7997632346753790e+01 -8.2854572447767850e+01 5.7176795385021251e+01 3.6482760225924721e+01 -9.9482751790447255e+03 -9.1976326883640031e+03 -3.9507306087641060e+04 -6.9173065305760247e+01 -5.4984491138959129e+01 2.8388665063202097e+01 9.8809284714207024e+01 -5.4251513631534181e+01 -2.2239462496602573e+02 2.4643980683599561e+03 1.1856588130770415e+04 1.8024683927566210e+04 2.0454637439795761e+01 1.5023389016230340e+00 1.0898459667124257e+01 -4.8404489877839296e+00 1.4740892126793369e+01 3.6912252239580766e+01 6.3970587545343430e+05 3.1029808898337907e+05 -3.1090544169238041e+05 -7.2728039369077305e+02 -3.4978258908829048e+01 -5.6323298822249672e+02 3.0337707916936779e+01 7.7313926601304183e+02 1.2725217032339788e+03 3.5483641849103951e+03 
      </Row>
      <Row Index="46">
        -3.6491197799421375e+03 6.2247894252414890e+03 -6.9488900000302092e+03 -6.4063958439481212e+01 7.8127521906899347e+01 -3.6422843108308734e+02 2.9315213479058002e+00 -6.0286056950251805e+01 4.0361674502370079e+01 1.7651938275249183e+03 -7.5033603310599765e+03 -2.1677027037572825e+03 2.9243144409758770e+01 -1.7969514835567679e+01 -9.4736838259376782e+01 3.2359696220501974e+01 -5.6837438179099991e+00 -7.0622458415366509e+01 6.9296705189957511e+03 -9.1320778760474441e+03 2.5056261741921324e+04 -1.3427847397944788e+02 -5.8188885093193612e+01 -1.2713092702244478e+02 -8.4394523156067976e+01 4.1046091956031887e+01 -4.4489192476319658e+01 -5.2015583064714810e+03 3.7065480567397935e+02 -1.7161658517864798e+04 6.2036115905912084e+01 -5.3388024527655489e+01 4.1197778564112741e+02 3.5729635392146520e+01 4.4506602741934330e+01 6.1490526704717922e+01 1.3507727324454718e+03 3.4845253442827006e+03 4.8345724569897939e+03 1.2043418110058013e+01 2.2240007281087458e+01 3.1263265510016581e+01 3.1697238834567543e-02 -1.1583714670043832e+01 1.0544838288876917e+01 3.1029808869869827e+05 6.7154398845124035e+05 3.2790375455509673e+05 -1.1585580827711965e+02 6.9634046573520732e+02 -5.1413007803454702e+03 1.0583236425705436e+03 3.4040250784278186e+02 3.2623601748270858e+02 -4.8074831887857727e+03 
      </Row>
      <Row Index="47">
        3.7196668878518853e+03 1.5175090433371481e+03 2.6126982301471799e+01 6.0519450027233688e+01 -8.1312118770983943e+01 3.6928689741681865e+02 -4.1899182193828892e+00 5.8543911522276176e+01 -4.8148929249251523e+01 -1.7958873198990916e+03 2.7388579475585675e+03 5.7858448628233537e+03 -2.8884519541309146e+01 1.7508669647288116e+01 9.5405081138680544e+01 -3.2013736800037805e+01 5.8572336484648986e+00 7.2014384212623554e+01 -7.0283990233372961e+03 -5.5740245906107302e+03 -1.1923804015567377e+04 1.3459629626377318e+02 5.8808708684619802e+01 1.2774676291024826e+02 8.5262421316305790e+01 -4.2314255932615197e+01 4.1681093954357493e+01 5.2425395020409087e+03 3.7429358767125896e+03 1.1629389708635963e+04 -6.0625453932560049e+01 5.3312492718267322e+01 -4.1628650647256995e+02 -3.7187759014400399e+01 -4.3921343171186891e+01 -5.1767644381524406e+01 -1.3349190751653564e+03 -3.3938347753041526e+03 -4.8280851986099806e+03 -1.2653790306866767e+01 -2.2741026701781692e+01 -3.2306140827046818e+01 7.7051412555192655e-02 1.1448727160940280e+01 -1.1177598821312415e+01 -3.1090544139023998e+05 3.2790375452071725e+05 6.7205620973924757e+05 1.4350202038190764e+02 -6.9406963859639927e+02 5.2143249977506694e+03 -1.0612975720696231e+03 -3.4765814308084049e+02 -3.7146631970799945e+02 4.8217780371132976e+03 
      </Row>
      <Row Index="48">
        2.8451824160918179e+01 -4.1003079023820345e+02 -3.9706577632763299e+02 -5.1584360882453439e+01 -3.2456732275731156e+01 1.6126318043258095e+01 -5.1754532444208508e+00 -3.0079733198424037e+01 1.2888853132342888e+01 -2.0393925953706912e+01 1.0748290457899188e+03 7.9547169589385567e+02 -1.0937822187194115e+00 2.2610906440928602e+00 5.2868484652724419e+00 5.8623653984823818e+00 1.5833537316770389e+01 1.2413892237174480e+00 -5.4055885189148398e+00 -1.1036039242700430e+02 -2.0012142025635455e+02 3.9566723993299092e+01 2.1893378039434086e+01 6.1702818645530115e+00 -1.4064091871196347e+01 -4.9701557137318559e+01 1.8134349748438012e+01 -3.9215837114819507e+01 1.0027796944147650e+03 1.0034213247705509e+03 1.4995052387763906e+01 2.2257156308232709e+01 -1.8824368385526071e+01 8.2619890973120960e+00 4.4391205737451855e-01 -3.0643599815739975e+01 -2.3015424418629443e+01 4.9599516463860652e+02 3.9143500165540530e+02 -1.2577914333706394e+01 -9.1610674471987892e+00 4.8550698229266942e-02 2.2233933191331801e+00 1.6904825231113279e+00 2.8674338574279190e-01 -7.2728038759743322e+02 -1.1585579932521637e+02 1.4350201816446435e+02 6.5420404490875671e+02 -1.8318439167274732e+02 2.2208493453337536e+02 1.4941836886593865e+02 -3.5523891564636978e+02 8.5191878566083574e+01 -5.0895130917621145e+01 
      </Row>
      <Row Index="49">
        -2.7823253717077066e+00 -5.9376594796703557e+02 -2.4771911838753522e+02 2.4635676460630748e+01 5.3076994677609491e+01 -2.0807052240554981e+01 -3.4950727454946673e-01 -2.5504147546162585e+01 -4.6857062400739551e+00 1.6331691766414352e+01 -2.8549954744235777e+01 -1.4458757891268789e+02 -2.6660923601635886e+00 -1.1810023543622833e+01 -4.4180606322347558e+00 1.8271370765698407e+00 6.5075198095953510e+00 -9.6995621214547612e-01 1.2640094405907035e+01 -2.5367127023311588e+02 -3.3812548855878771e+02 -1.8117676197464334e+01 -3.0744833329066555e+01 -8.3961262578032319e+00 -6.8291891918969814e+00 -2.2576704799507752e-01 -4.7324759786295090e+00 9.8611105364277876e+00 -4.3330947972305745e+02 -2.8089717525121597e+02 -2.2510444205209978e+00 -2.1200965231292656e+01 2.5058292247749577e+01 3.1799879228228747e+00 1.2567686720312850e+00 9.3571982845789989e+00 1.8882900577241877e+01 -3.5017428138267456e+02 -3.1371164661557754e+02 6.0935312457675153e+00 1.2864605557832313e+01 -2.6186597006994994e-02 -1.6189759279470195e-02 -1.8073162617516516e+00 -5.8317753519146009e-01 -3.4978255513626209e+01 6.9634046310381950e+02 -6.9406964262147790e+02 -1.8318439169900171e+02 3.5167274868826240e+02 -2.4190660353744465e+02 5.4693606699829274e+01 -8.4984954541255988e+01 -2.8299447466069523e+01 -2.0200444383369586e+01 
      </Row>
      <Row Index="50">
        8.0782268853349672e+02 3.6824348742980237e+03 -3.1088881706319426e+03 -2.5221183611669403e+01 -7.7647969248861045e+01 8.9472512619652525e+02 -5.8404374874031646e+01 1.7952970527210709e+01 3.7494104079778481e+00 -3.2163591540273831e+02 6.5709395805403947e+03 5.4875387390853975e+03 2.0535801051133149e+01 1.0309217801341674e+01 1.6174633208265220e+02 1.8205463372653412e+00 -5.6499029760875601e+00 2.2701513136635299e+01 -2.5498994494060503e+02 1.0710461950265466e+04 8.1097328097693389e+03 -2.1060613771016051e+01 9.5682483942287995e+00 2.3491022241229490e+02 -1.2002217687260583e+01 8.8204057668908717e+00 4.6351829607790478e+01 -2.1661945640637970e+02 -1.7405331000760998e+04 -9.0435627160586027e+03 8.8568882123454387e+00 6.7079614900656736e+01 -9.8221045671106481e+02 2.8763222598807147e+01 1.2081188551152081e+01 -9.0985270000718970e+01 6.0123389285926265e+01 1.3160484255085198e+03 1.1483057678500838e+03 -2.3960012148355361e+00 -1.0739662611205574e+01 -2.5845130208392550e+01 -3.3777878933045145e+00 -7.1047403104810769e-01 -5.9989978509779007e-01 -5.6323290068724600e+02 -5.1413007527410282e+03 5.2143250011890923e+03 2.2208493647383693e+02 -2.4190660411038249e+02 1.0472086276966289e+04 6.7802438939644162e+01 1.9106182868245281e+02 7.1094361230650975e+01 2.7622231399350994e+02 
      </Row>
      <Row Index="51">
        -1.3332182555231586e+02 1.1241297024501664e+03 1.2368796131093525e+03 -5.4122487569654822e+01 2.7515715860254204e+00 1.0860804459106191e+01 -3.7494314410210109e+01 -1.9168667344151800e+01 1.6394954459378823e+00 3.9424005959751597e+01 7.2831537756429225e+02 3.1539607262849381e+02 2.4824074345504471e+01 -5.7112166666547637e-01 4.4656032691758583e+00 1.6500593603013158e+01 -4.8936312847647514e+00 3.5463049611138047e+00 8.5090913919284560e+01 -1.9409401730291324e+03 -1.7631331382317821e+03 -5.6984860913208649e+01 -8.5866047510475330e+00 6.1689393714607057e+00 -2.4260120311046919e+01 2.3972168285635234e+01 1.8970967729438712e+01 8.7064432629232726e+00 1.1611645752894924e+03 9.6515295925754845e+02 1.8060373311148510e+01 2.0605753798662647e+00 -2.0176456788020687e+01 3.2612161243920809e+01 1.6178645769839250e+01 -2.1594440929378180e+01 -3.8397651799665226e+01 4.8722454858576043e+02 3.7216857072713179e+02 1.2040709780596632e+00 8.0889314842434601e-01 4.4254143132264634e+00 -1.2901665656924308e+00 -6.1005801754229196e+00 1.5190710357043677e+00 3.0337680167833241e+01 1.0583236409269575e+03 -1.0612975550518786e+03 1.4941836863996923e+02 5.4693606854341311e+01 6.7802437957044901e+01 4.9791706499977886e+02 2.3559567105491396e+02 4.8054446549832051e+00 -2.9523463579978829e+02 
      </Row>
      <Row Index="52">
        -3.0995383573744128e+01 3.7371822794242496e+02 2.8792909103543309e+02 -2.7784952446868829e+01 -1.8947533580126674e+01 2.2688485183962314e+01 -3.5075671282503151e+01 3.5851998528860349e+01 -2.8927552875758920e+01 5.0536371720540572e+01 -8.5058051047126037e+02 -7.5379423960082886e+02 3.0526881300505124e+01 7.7760383519431571e+00 1.8836686497147923e+00 7.8920887755651847e+00 -2.8894870228312584e+01 5.7425538783406154e+00 2.9378872651964372e+00 2.4462173034226623e+02 2.3647597734706272e+02 -8.7068046176007556e+01 -1.2790319617450319e+00 -2.1987291416338905e-01 2.1313481432998014e+00 7.7967102295715677e+01 -3.3818534800192310e+00 8.8590335544262899e+00 -5.6851635459478746e+02 -4.7023111119303644e+02 8.4949289169628628e+00 -6.3362053585073852e-01 -2.0843733463315203e+01 9.6782371011707369e+00 1.7777483532501492e+01 2.8228712072764438e+01 2.9777703446557339e+01 -2.5355057219294793e+02 -3.1899422840590137e+02 8.3297848715494300e+00 -1.7891533413012528e+00 -1.8697997315570003e-01 -4.1857759522005011e+00 -6.6648948259584699e+00 -3.5364701087333827e-01 7.7313926328254638e+02 3.4040250159080654e+02 -3.4765814130602240e+02 -3.5523891565632448e+02 -8.4984954556821236e+01 1.9106183075708671e+02 2.3559567080381214e+02 7.1537114099205394e+02 -1.6736635552899244e+02 -3.2401129301317962e+02 
      </Row>
      <Row Index="53">
        -1.6347402200114425e+02 9.9175431681036434e+02 4.6734483295488917e+02 2.7177747844179976e+00 -1.0271047253118013e+00 6.3470916925114125e+00 8.1824420027237466e+00 -1.2301981158310809e+01 2.3960621230712331e+02 -1.1015180397166534e+02 2.8531286012279857e+03 2.6555422772817919e+03 -2.6651201200545529e+00 -1.7938024268878507e+00 2.9248236041416931e+00 -7.0202873410094071e+00 9.1704595519413488e+00 -7.1455369159460929e+01 1.5487423441958231e+02 -3.8367959694076389e+03 -2.8333195973602537e+03 3.6658375983361111e+01 -2.7599469511487866e+00 1.3505245834492399e+01 -1.5527788118729788e+01 -1.3817120569658073e+01 5.0553978771028596e+01 5.5076203498942846e+01 4.0158641526980891e+03 2.9816909631977933e+03 -9.6570012083548136e+00 1.4016832666394407e+01 -1.9417269600261761e+01 2.1666265665511901e+01 -2.2966797179888090e+00 -2.9170425876746970e+02 -1.8481704779885519e+02 1.9223294320244927e+03 2.2004898561267819e+03 -1.1280679564198834e+00 -3.0926464868430088e+00 5.1341940025758035e+00 -5.6156040267865137e-01 1.7345857890787215e+00 8.8632334509544535e+00 1.2725216638425336e+03 3.2623603844916488e+02 -3.7146629706267959e+02 8.5191878345270197e+01 -2.8299447198047801e+01 7.1094350263755132e+01 4.8054458996675748e+00 -1.6736635520432304e+02 1.5587453822157022e+03 1.1919095058318626e+03 
      </Row>
      <Row Index="54">
        1.3680788808078808e+02 -4.0235465353300006e+03 -4.7367906595340082e+03 5.2233860828840989e+01 -3.2319137929080171e+00 4.9963924795051753e+00 3.0872850598754667e+01 1.6027174278424354e+01 2.0284254410675476e+02 -5.9902151385387197e+02 5.4097884268275011e+03 6.3868684344792873e+03 -2.3094803906200468e+01 -6.8692065417599224e+00 -1.7696026480484761e+00 -1.7734434142898863e+01 8.2871157490480982e+00 -2.7921927670373407e+01 -4.7580033706256472e+01 7.4128805202488320e+02 2.3810713644678035e+03 9.5099804952140403e+01 -1.2914737914248821e+01 1.7479134231681314e+01 1.7358593764851946e+00 -2.9480142395459552e+01 3.9697591179266965e+01 3.7786273967218654e+02 -1.7066098169995985e+03 -3.2522229537273829e+03 -5.8347130285605090e+01 -6.7619295363215315e-01 -1.6174967814413776e+01 3.1510611583011269e+01 -3.7547922191344696e+01 -2.7342640032896497e+02 -3.4171635849793739e+02 2.5596059632141719e+03 4.2259744789643219e+03 -1.9464463088888664e+00 -4.9443129119071330e+00 -3.4383740897082333e+00 2.0646717716363128e-01 7.1579584113059127e+00 1.8115594796065579e+01 3.5483642297003535e+03 -4.8074831309861565e+03 4.8217780191840466e+03 -5.0895130344111749e+01 -2.0200444269545187e+01 2.7622229079296039e+02 -2.9523463326672027e+02 -3.2401129362942709e+02 1.1919095121838945e+03 5.4631108680557718e+03 
      </Row>
    </InverseHessian>
  </Weights>
</MethodSetup>
